tree
version=v3
num_class=1
num_tree_per_iteration=1
label_index=0
max_feature_idx=118
objective=regression
feature_names=LONGITUDE LATITUDE DISCOVERY_DATE_J T2M_0 T2MDEW_0 T2MWET_0 TS_0 T2M_MAX_0 T2M_MIN_0 RH2M_0 PRECTOTCORR_0 PS_0 WS10M_0 WS10M_MAX_0 WS10M_MIN_0 WS10M_RANGE_0 WS50M_0 WS50M_MAX_0 WS50M_MIN_0 T2M_1 T2MDEW_1 T2MWET_1 TS_1 T2M_RANGE_1 T2M_MAX_1 T2M_MIN_1 RH2M_1 PRECTOTCORR_1 PS_1 WS10M_1 WS10M_MAX_1 WS10M_MIN_1 WS10M_RANGE_1 WS50M_1 WS50M_MAX_1 WS50M_MIN_1 T2M_2 T2MDEW_2 T2MWET_2 TS_2 T2M_MAX_2 T2M_MIN_2 RH2M_2 PRECTOTCORR_2 PS_2 WS10M_2 WS10M_MAX_2 WS10M_MIN_2 WS10M_RANGE_2 WS50M_2 WS50M_MAX_2 WS50M_MIN_2 T2M_3 T2MDEW_3 T2MWET_3 TS_3 T2M_RANGE_3 T2M_MAX_3 T2M_MIN_3 RH2M_3 PRECTOTCORR_3 PS_3 WS10M_3 WS10M_MAX_3 WS10M_MIN_3 WS10M_RANGE_3 WS50M_3 WS50M_MAX_3 WS50M_MIN_3 T2M_4 T2MDEW_4 T2MWET_4 TS_4 T2M_MAX_4 T2M_MIN_4 QV2M_4 RH2M_4 PRECTOTCORR_4 PS_4 WS10M_4 WS10M_MAX_4 WS10M_MIN_4 WS10M_RANGE_4 WS50M_4 WS50M_MAX_4 WS50M_MIN_4 T2M_5 T2MDEW_5 T2MWET_5 TS_5 T2M_MAX_5 T2M_MIN_5 QV2M_5 RH2M_5 PS_5 WS10M_5 WS10M_MAX_5 WS10M_MIN_5 WS10M_RANGE_5 WS50M_5 WS50M_MAX_5 WS50M_MIN_5 T2M_6 T2MDEW_6 T2MWET_6 TS_6 T2M_MAX_6 T2M_MIN_6 QV2M_6 RH2M_6 PRECTOTCORR_6 PS_6 WS10M_6 WS10M_MAX_6 WS10M_MIN_6 WS10M_RANGE_6 WS50M_6 WS50M_MAX_6 WS50M_MIN_6
feature_infos=[-168.87:-65.270277780000001] [17.93972222:70.330600000000004] [2448640.5:2457387.5] [-39.969999999999999:41.259999999999998] [-39.719999999999999:26.359999999999999] [-39.850000000000001:28.98] [-43.07:43.689999999999998] [-36.049999999999997:51.119999999999997] [-42.780000000000001:32.520000000000003] [4.8799999999999999:100] [0:124.8] [67.439999999999998:103.51000000000001] [0.45000000000000001:17] [0.77000000000000002:20.030000000000001] [0:12.199999999999999] [0.22:17.210000000000001] [0.69999999999999996:20.5] [1.1599999999999999:24.920000000000002] [0.01:15.390000000000001] [-35.18:40.719999999999999] [-35.079999999999998:27.34] [-35.130000000000003:29.289999999999999] [-40.310000000000002:42.590000000000003] [0.22:27.02] [-31.59:49.649999999999999] [-37.479999999999997:32.189999999999998] [4.3799999999999999:100] [0:138.03] [67.969999999999999:103.36] [0.5:14.01] [0.96999999999999997:20.48] [0.01:12.52] [0.27000000000000002:15.49] [0.71999999999999997:18.190000000000001] [1.45:25.600000000000001] [0.01:16.489999999999998] [-34.520000000000003:39.299999999999997] [-34.149999999999999:25.949999999999999] [-34.340000000000003:28.100000000000001] [-41.170000000000002:42] [-33.049999999999997:48.5] [-36.700000000000003:32.009999999999998] [4.4400000000000004:100] [0:144.34999999999999] [67.079999999999998:103.63] [0.48999999999999999:15.52] [0.94999999999999996:20.870000000000001] [0:13.800000000000001] [0.34000000000000002:16.199999999999999] [0.66000000000000003:19.940000000000001] [1.4399999999999999:25.52] [0.01:17.079999999999998] [-34.789999999999999:38.390000000000001] [-35.140000000000001:25.879999999999999] [-34.969999999999999:28.079999999999998] [-40.75:41.109999999999999] [0.14000000000000001:26.34] [-33.159999999999997:47.299999999999997] [-36.479999999999997:30.16] [4.3799999999999999:100] [0:177.55000000000001] [66.969999999999999:103.94] [0.46000000000000002:16.940000000000001] [0.89000000000000001:20.030000000000001] [0.01:13.91] [0.38:17.210000000000001] [0.58999999999999997:21.989999999999998] [1.1599999999999999:25.300000000000001] [0.01:18.219999999999999] [-36.799999999999997:38.950000000000003] [-36.670000000000002:26.43] [-36.630000000000003:28.379999999999999] [-41.590000000000003:42.75] [-35.990000000000002:47.57] [-39.729999999999997:31.120000000000001] [0.12:21.550000000000001] [4.8099999999999996:100] [0:144.34999999999999] [66.959999999999994:104.05] [0.46000000000000002:14.41] [0.97999999999999998:20.460000000000001] [0.01:12.99] [0.32000000000000001:17.800000000000001] [0.70999999999999996:18.550000000000001] [1.3600000000000001:25.399999999999999] [0.01:14.69] [-39.520000000000003:38.649999999999999] [-42.960000000000001:27.120000000000001] [-41.200000000000003:28.699999999999999] [-45.899999999999999:42.259999999999998] [-38.340000000000003:46.880000000000003] [-41.039999999999999:31.100000000000001] [0.059999999999999998:22.399999999999999] [5.25:100] [66.859999999999999:104.01000000000001] [0.38:16.370000000000001] [0.65000000000000002:19.809999999999999] [0:14.77] [0.29999999999999999:15.630000000000001] [0.5:19.039999999999999] [0.83999999999999997:24.850000000000001] [0.01:16.93] [-37.920000000000002:38.479999999999997] [-39.950000000000003:26.210000000000001] [-38.939999999999998:28.949999999999999] [-41.770000000000003:41.729999999999997] [-35.340000000000003:48.259999999999998] [-40.340000000000003:30.550000000000001] [0.12:21.18] [6.3799999999999999:100] [0:146.09999999999999] [67.420000000000002:104.05] [0.47999999999999998:16.77] [0.83999999999999997:19.670000000000002] [0.01:13.93] [0.34000000000000002:16.800000000000001] [0.77000000000000002:21.949999999999999] [1.27:25.18] [0.01:18.350000000000001]
tree_sizes=2431 2124 2468 2245 2136 2058 2301 2198 2026 2294 2310 2391 2053 2384 1946 2389 2193 2129 2289 2400 2136 2131 2459 2219 2315 2131 2321 2220 2557 2215 2398 2536 2235 2316 2307 2138 2208 2483 2311 2487 2143 2305 1954 2214 2133 1937 2196 2393 2229 1964 2150 2058 2046 2048 2226 1951 2242 2219 2390 2049 2135 2489 1860 1864 2304 2307 1862 1875 2389 1938 1942 1950 2142 2210 2302 2373 2214 2220 2215 2029 2056 2115 2141 2150 2216 2201 2477 2122 1950 2226 2211 1945 2232 2199 1872 2476 2130 1961 2385 2389

Tree=0
num_leaves=27
num_cat=0
split_feature=0 55 56 32 0 18 106 24 56 7 56 0 0 117 65 17 42 117 17 90 0 42 24 106 0 7
split_gain=7.4302e+10 9.98772e+10 6.56453e+10 1.30839e+11 2.50512e+10 6.92859e+10 1.65268e+10 8.72e+09 7.84092e+09 2.39347e+10 2.43371e+09 4.14325e+09 2.64144e+10 2.42723e+09 1.11947e+10 2.20682e+09 1.86084e+09 8.95949e+08 1.12238e+09 8.82617e+08 1.72448e+09 6.45306e+08 3.81716e+08 2.26221e+08 1.60547e+08 1.11001e+08
threshold=-141.19584499999999 12.305000000000001 14.025 1.5950000000000004 -147.73225369999997 3.8050000000000002 24.735000000000003 20.625000000000004 11.255000000000001 14.425000000000002 18.595000000000002 -117.87205999999999 -118.50084999999999 18.070000000000004 7.4850000000000012 3.6350000000000002 64.090000000000018 13.625000000000002 13.025 30.555000000000003 -116.08682559999998 71.590000000000018 13.755000000000001 29.985000000000003 -134.53555555499997 21.765000000000004
decision_type=2 2 2 2 2 2 2 2 2 2 2 2 2 2 2 2 2 2 2 2 2 2 2 2 2 2
left_child=1 8 4 -4 6 -6 -3 -5 16 22 13 12 15 19 25 -12 -1 23 -19 24 -21 -18 -10 -13 -2 -15
right_child=10 2 3 7 5 -7 -8 -9 9 -11 11 17 -14 14 -16 -17 21 18 -20 20 -22 -23 -24 -25 -26 -27
leaf_value=988.41590134208786 733.33385790814077 892.58463976057556 3886.3300404412084 735.85473044426703 1085.6899507320138 2497.0613886211131 1332.3413481312064 1550.9503441842494 705.43243760910843 1653.1861893586674 1053.8549553249093 700.95331463087382 1598.9813942414335 704.43140359177062 1484.65402512624 729.77059930429243 783.84209445454803 752.31926195890014 995.38705338660714 758.7448262192537 707.18950437299975 706.56960828861645 838.2695822231027 724.98447759912858 700.0271604258362 768.38500114289138
leaf_weight=22 131 728 22 27 240 36 86 21 88 33 20 946 36 94 20 347 103 92 21 674 4369 1747 25 562 22794 33
leaf_count=22 131 728 22 27 240 36 86 21 88 33 20 946 36 94 20 347 103 92 21 674 4369 1747 25 562 22794 33
internal_value=720.191 858.159 1079.98 1970.53 1022.79 1269.78 939.045 1092.46 730.648 942.397 705.643 737.416 823.501 703.356 824.941 747.432 714.134 716.015 797.491 702.717 714.08 710.872 734.821 709.909 700.217 721.049
internal_weight=0 3178 1160 70 1090 276 814 48 2018 146 30139 2024 403 28115 147 367 1872 1621 113 27968 5043 1850 113 1508 22925 127
internal_count=33317 3178 1160 70 1090 276 814 48 2018 146 30139 2024 403 28115 147 367 1872 1621 113 27968 5043 1850 113 1508 22925 127
is_linear=0
shrinkage=1


Tree=1
num_leaves=23
num_cat=0
split_feature=1 52 23 73 51 113 29 78 93 93 117 1 1 23 70 1 89 23 1 51 93 1
split_gain=7.98803e+10 1.05319e+11 7.53286e+10 3.50397e+10 3.03732e+10 7.89817e+10 2.03969e+10 1.60511e+10 5.47796e+09 3.40909e+09 1.40776e+10 6.17811e+09 3.80662e+09 3.27095e+09 5.75073e+09 7.94281e+08 2.99077e+09 3.9138e+08 1.22289e+09 1.55708e+08 1.48052e+08 9.03335e+07
threshold=61.668350000000011 12.135000000000003 13.505000000000001 23.975000000000005 4.1650000000000009 2.7350000000000008 1.6250000000000002 97.445000000000007 62.345000000000006 36.220000000000006 18.070000000000004 48.14986111000001 41.890577780000008 10.165000000000001 8.3850000000000033 61.158350000000006 16.265000000000004 17.345000000000002 48.404383500000009 0.62500000000000011 78.970000000000013 59.049600000000005
decision_type=2 2 2 2 2 2 2 2 2 2 2 2 2 2 2 2 2 2 2 2 2 2
left_child=9 8 4 6 7 -6 -4 -3 -2 10 11 12 -1 20 -15 17 19 21 -19 -17 -10 -11
right_child=1 2 3 -5 5 -7 -8 -9 13 15 -12 -13 -14 14 -16 16 -18 18 -20 -21 -22 -23
leaf_value=-8.7651593597906956 365.82188680548416 407.19704451181497 1572.1269923817026 2060.9931704817145 2452.0033467320036 265.97331480587229 465.33139692915245 146.47631202845085 4.2365262829867278 -19.34673035855543 806.43453982543951 509.71784327420323 68.557833604738008 54.054577410641834 536.13044923095697 70.70481310272217 393.80573670959473 -9.5391279844435726 146.59503431237263 -21.836610829671223 -20.285220121622714 -1.5337126255403615
leaf_weight=3099 38 382 22 29 21 51 47 479 275 23888 20 22 703 204 25 20 20 2436 46 90 1141 259
leaf_count=3099 38 382 22 29 21 51 47 479 275 23888 20 22 703 204 25 20 20 2436 46 90 1141 259
internal_value=0 155.986 394.757 1185.98 311.649 903.565 818.223 262.15 9.71553 -13.8335 12.5847 8.43272 5.53207 1.48936 106.683 -17.6285 56.3455 -17.9896 -6.64542 -5.0109 -15.5229 -19.1557
internal_weight=0 2714 1031 98 933 72 69 861 1683 30603 3844 3824 3802 1645 229 26759 130 26629 2482 110 1416 24147
internal_count=33317 2714 1031 98 933 72 69 861 1683 30603 3844 3824 3802 1645 229 26759 130 26629 2482 110 1416 24147
is_linear=0
shrinkage=0.03


Tree=2
num_leaves=27
num_cat=0
split_feature=0 57 56 30 0 51 2 57 76 109 110 17 13 0 65 92 109 94 76 0 75 2 50 34 109 73
split_gain=6.57969e+10 9.49992e+10 5.65726e+10 1.03483e+11 2.78057e+10 3.10209e+10 2.14853e+10 1.35205e+10 6.87072e+09 3.7986e+09 4.86092e+09 1.63777e+10 3.27628e+10 2.55122e+09 1.81275e+09 1.48457e+09 7.48225e+08 1.23816e+09 4.92963e+08 8.05344e+08 4.68496e+09 3.11943e+08 1.55461e+08 5.04464e+08 9.8034e+07 8.44152e+07
threshold=-141.19584499999999 15.195000000000002 14.025 2.8050000000000002 -145.47344999999999 2.3050000000000002 2457174.0000000005 23.645000000000003 61.220000000000006 33.220000000000006 0.015000000000000001 11.535000000000002 9.6450000000000014 -116.82970979999997 1.2650000000000003 11.320000000000002 69.655000000000015 94.77500000000002 44.655000000000008 -119.35719999999999 7.660000000000001 2456164.0000000005 2.4350000000000005 4.3050000000000006 47.845000000000006 16.765000000000004
decision_type=2 2 2 2 2 2 2 2 2 2 2 2 2 2 2 2 2 2 2 2 2 2 2 2 2 2
left_child=1 8 4 -4 6 -6 -3 -5 -1 10 14 13 -13 -12 -2 -16 17 -10 19 20 -11 -21 23 -20 -24 -18
right_child=9 2 3 7 5 -7 -8 -9 16 18 11 12 -14 -15 15 -17 25 -19 22 21 -22 -23 24 -25 -26 -27
leaf_value=545.3490524139404 239.79866695827909 153.83774459586039 2743.544288330078 82.235846195954537 335.31476115125292 1115.4282545471192 551.61101217491523 1026.4098272705078 276.29984536743166 -7.3673551175888266 155.41471205064465 1481.2254291915892 46.137649595679306 13.414283594752467 -10.125552740236676 249.60066251993177 -19.763570662458498 14.240884689064913 -20.558528076171875 -0.93965001125745873 287.32903719765801 -19.088767009477863 -13.025137191438802 153.41795892333982 -19.5981305879457 13.864261192866733
leaf_weight=20 27 877 24 39 141 68 142 21 20 365 143 22 41 559 2049 20 1670 86 60 1395 56 2191 2263 20 20928 70
leaf_count=20 27 877 24 39 141 68 142 21 20 365 143 22 41 559 2049 20 1670 86 60 1395 56 2191 2263 20 20928 70
internal_value=0 129.831 325.442 1078.65 273.919 589.132 209.268 412.697 -7.7047 -13.69 19.1964 83.9235 547.279 42.3403 -4.42781 -7.61491 -13.6966 63.686 -17.1392 -7.42025 31.8322 -12.0285 -18.8127 22.9356 -18.9567 -18.4107
internal_weight=0 3178 1312 84 1228 209 1019 60 1866 30139 2861 765 63 702 2096 2069 1846 106 27278 4007 421 3586 23271 80 23191 1740
internal_count=33317 3178 1312 84 1228 209 1019 60 1866 30139 2861 765 63 702 2096 2069 1846 106 27278 4007 421 3586 23271 80 23191 1740
is_linear=0
shrinkage=0.03


Tree=3
num_leaves=24
num_cat=0
split_feature=105 40 117 54 9 103 114 13 106 5 17 84 45 89 59 104 9 100 105 13 17 18 97
split_gain=7.5595e+09 1.17826e+10 2.06508e+10 1.68323e+10 1.74936e+10 4.80127e+09 9.68917e+09 3.17765e+09 2.76632e+09 1.63692e+09 2.08546e+09 1.59265e+09 8.5662e+08 3.45291e+09 1.60649e+08 1.32803e+08 1.71898e+09 1.29702e+08 5.0935e+07 2.34762e+08 3.54289e+07 2.30856e+07 83152
threshold=11.485000000000001 23.095000000000002 5.9650000000000007 9.8350000000000026 79.655000000000015 -7.1649999999999991 3.1050000000000004 1.9950000000000003 14.945000000000002 16.915000000000003 12.915000000000001 2.9050000000000007 1.0850000000000002 9.4950000000000028 46.410000000000004 9.7350000000000012 64.030000000000015 2.9550000000000005 8.7750000000000004 2.2750000000000004 3.4650000000000003 7.3050000000000006 0.79500000000000015
decision_type=2 2 2 2 2 2 2 2 2 2 2 2 2 2 2 2 2 2 2 2 2 2 2
left_child=12 2 3 7 -5 6 -4 -2 -3 10 -10 -7 13 17 -11 18 -17 -1 21 -20 -18 -14 -19
right_child=1 8 5 4 -6 11 -8 -9 9 14 -12 -13 15 -15 -16 16 20 22 19 -21 -22 -23 -24
leaf_value=63.329176391601564 312.32181307983399 340.25328691755021 -17.943965175083704 262.36321504368124 46.710715192962475 234.77988812079795 809.8016363983154 -2.3217978369929519 3.0596447536682132 -6.4188168277838002 114.31085956302765 -0.81161125476381413 -19.503749689265977 422.02238973999022 -18.038277506180631 270.57361779785157 19.918971557617187 -22.482465438842773 17.281841656399756 -17.138329616095913 -20.632390062535702 -13.140406151241725 -20.428507448084215
leaf_weight=20 30 21 35 891 546 26 20 779 7011 1369 155 3842 10305 20 4918 20 21 24 194 2209 253 540 68
leaf_count=20 30 21 35 891 546 26 20 779 7011 1369 155 3842 10305 20 4918 20 21 24 194 2209 253 540 68
internal_value=0 11.9228 46.2611 118.803 180.424 4.72956 283.054 9.34607 -3.79879 -4.33585 5.466 0.771992 -17.1274 58.9266 -15.5081 -17.8687 2.07407 -5.91191 -18.3113 -14.3595 -17.5244 -19.1869 -20.9643
internal_weight=0 19643 6169 2246 1437 3923 55 809 13474 13453 7166 3868 13674 132 6287 13542 294 112 13248 2403 274 10845 92
internal_count=33317 19643 6169 2246 1437 3923 55 809 13474 13453 7166 3868 13674 132 6287 13542 294 112 13248 2403 274 10845 92
is_linear=0
shrinkage=0.03


Tree=4
num_leaves=23
num_cat=0
split_feature=2 116 51 92 58 87 12 8 117 105 41 6 115 17 81 52 115 2 2 14 54 63
split_gain=1.67428e+10 3.83513e+10 7.23987e+10 1.8651e+10 5.08724e+10 1.25697e+10 1.96961e+10 2.39401e+10 8.56407e+09 2.66005e+09 4.53733e+09 3.01562e+10 8.40239e+09 2.17529e+09 1.66033e+09 9.97101e+08 8.05734e+08 7.86859e+08 4.5561e+08 2.79665e+09 1.8483e+08 1.91138e+07
threshold=2453838.5000000005 2.1550000000000007 4.0450000000000008 7.2900000000000009 8.7350000000000012 8.2350000000000012 2.1950000000000007 4.3750000000000009 17.395000000000003 13.525 11.945000000000002 26.765000000000004 0.74500000000000011 6.9750000000000005 0.12500000000000003 13.055000000000001 8.6450000000000014 2453919.0000000005 2455357.0000000005 0.18500000000000003 9.1250000000000018 1.7350000000000001
decision_type=2 2 2 2 2 2 2 2 2 2 2 2 2 2 2 2 2 2 2 2 2 2
left_child=1 2 3 20 -5 8 7 -7 14 17 11 12 -11 -8 -3 -12 -17 -2 19 -19 -1 -20
right_child=9 5 -4 4 -6 6 13 -9 -10 10 15 -13 -14 -15 -16 16 -18 18 21 -21 -22 -23
leaf_value=-21.597505880502553 127.32556290570426 242.74759269382642 2175.1843639526364 1884.1854833984373 179.19524254935129 1178.38756500831 96.783789772313384 233.39353599417387 612.95065768432619 536.66337822777882 168.27605977739606 1042.4138562187782 15.645103052076307 -8.9227546243460285 -13.535577207585742 -11.901894031426073 65.338884939565901 265.14314946637836 -8.0973295357723352 -7.3351634261144527 75.176096430239468 -18.905489220882345
leaf_weight=78 34 23 20 21 63 26 283 335 20 28 28 26 5467 460 2100 10283 123 35 149 1080 23 12612
leaf_count=78 34 23 20 21 63 26 283 335 20 28 28 26 5467 460 2100 10283 123 35 149 1080 23 12612
internal_value=0 62.553 460.514 275.144 605.443 37.4277 119.665 301.454 -4.93817 -7.23031 1.12957 23.1228 18.3 31.3396 -10.7591 -10.5078 -10.9889 -16.8192 -17.1724 1.21797 0.440047 -18.7793
internal_weight=0 3452 205 185 84 3247 1104 361 2143 29865 15955 5521 5495 743 2123 10434 10406 13910 13876 1115 101 12761
internal_count=33317 3452 205 185 84 3247 1104 361 2143 29865 15955 5521 5495 743 2123 10434 10406 13910 13876 1115 101 12761
is_linear=0
shrinkage=0.03


Tree=5
num_leaves=22
num_cat=0
split_feature=112 51 32 64 91 40 62 117 15 15 105 17 108 65 105 14 61 64 62 88 18
split_gain=8.4662e+09 2.02394e+10 7.46241e+09 2.53697e+10 5.17664e+09 8.47799e+09 1.04047e+10 7.52044e+09 1.91448e+09 1.80997e+09 1.53516e+10 1.684e+09 1.30799e+09 5.04195e+08 3.69273e+08 9.35861e+08 4.29863e+09 5.48777e+08 1.1766e+08 3.27756e+08 2.12238e+07
threshold=1.1650000000000003 4.1650000000000009 1.1250000000000002 1.3750000000000002 7.2650000000000006 23.095000000000002 0.91500000000000015 18.070000000000004 0.84500000000000008 8.1150000000000002 29.535000000000004 3.5550000000000002 10.590000000000002 4.0150000000000006 8.7750000000000004 0.18500000000000003 98.785000000000011 0.16500000000000004 1.0050000000000001 3.0650000000000004 7.3050000000000006
decision_type=2 2 2 2 2 2 2 2 2 2 2 2 2 2 2 2 2 2 2 2 2
left_child=1 2 3 11 14 6 -6 -8 -4 12 -11 -1 -7 -10 18 16 -16 -17 19 -2 -20
right_child=4 -3 8 -5 5 9 7 -9 13 10 -12 -13 -14 -15 15 17 -18 -19 20 -21 -22
leaf_value=322.7602569580078 -19.50061041025015 796.61090026855459 259.21573310004339 1171.3323511007559 694.44575009432697 2.3486857496571529 37.918145429403538 606.92303353445868 -6.6275774484528212 -4.8600549364089964 874.37916668701166 25.615706201106942 -17.761403274783518 147.19199011230469 -7.9877067192564617 66.407427625541231 476.36282514953609 -11.440326292840423 -18.596606460679222 123.40390878295898 -12.436050603578675
leaf_weight=21 52 36 27 23 22 7851 4629 21 467 168 20 94 4626 20 94 83 20 4503 9990 20 530
leaf_count=21 52 36 27 23 22 7851 4629 21 467 168 20 94 4626 20 94 83 20 4503 9990 20 530
internal_value=0 104.145 65.9112 261.786 -2.19596 9.02651 43.5673 40.4878 13.3222 -3.71525 88.676 79.8769 -5.10738 -0.310552 -14.9192 -7.92076 76.9861 -10.0314 -18.0247 20.1951 -18.2862
internal_weight=0 688 652 138 32629 17337 4672 4650 514 12665 188 115 12477 487 15292 4700 114 4586 10592 72 10520
internal_count=33317 688 652 138 32629 17337 4672 4650 514 12665 188 115 12477 487 15292 4700 114 4586 10592 72 10520
is_linear=0
shrinkage=0.03


Tree=6
num_leaves=25
num_cat=0
split_feature=2 113 62 90 62 70 12 88 113 42 105 105 4 113 32 11 81 2 2 14 4 96 99 62
split_gain=1.5642e+10 3.56693e+10 7.00471e+10 1.65099e+11 1.986e+10 1.04032e+10 2.1279e+10 2.08139e+10 6.80665e+09 4.72453e+09 4.43799e+09 2.39062e+09 3.88968e+09 6.74204e+09 1.43167e+10 2.43773e+09 1.13559e+09 7.40777e+08 4.22651e+08 2.58771e+09 1.61274e+08 2.96703e+08 1.01917e+08 1.84289e+07
threshold=2453838.5000000005 2.2350000000000008 2.7550000000000003 16.805000000000003 1.0050000000000001 10.065000000000003 1.9550000000000003 14.035000000000002 13.655000000000003 69.970000000000013 12.875000000000002 13.525 10.725000000000003 1.8950000000000002 1.0550000000000004 83.00500000000001 0.12500000000000003 2453919.0000000005 2455357.0000000005 0.18500000000000003 12.975000000000003 1.8250000000000004 9.8050000000000015 1.0050000000000001
decision_type=2 2 2 2 2 2 2 2 2 2 2 2 2 2 2 2 2 2 2 2 2 2 2 2
left_child=1 2 4 -4 -1 8 7 -7 16 -6 -8 17 13 14 -13 -15 -3 -2 19 -19 21 -14 -22 -20
right_child=11 5 3 -5 9 6 10 -9 -10 -11 -12 12 20 15 -16 -17 -18 18 23 -21 22 -23 -24 -25
leaf_value=1054.4428886631556 123.78124921013327 181.4733229222791 10.732293858681954 3506.8183506774899 350.66350000718057 949.98106442871085 341.02679023920103 193.783261471397 513.45143029254416 26.521056474179638 24.173302377543052 904.23744244119393 69.44466994222006 -17.269335870180569 88.24986400166496 20.562198662691149 -7.4059190402385395 255.16600770786832 -4.4419202880859379 -6.9363318806687992 -17.73086381719494 -8.6579336050210181 9.6526189544677727 -18.065346299202464
leaf_weight=21 34 29 31 20 51 50 43 95 23 196 532 23 45 2027 122 6289 2361 35 90 1080 5715 1609 125 12671
leaf_count=21 34 29 31 20 51 50 43 95 23 196 532 23 45 2027 122 6289 2361 35 90 1080 5715 1609 125 12671
internal_value=0 60.4617 362.678 1381.75 168.751 29.6902 129.768 454.541 -0.171266 93.4493 47.8684 -6.98858 0.936619 14.877 217.682 11.3409 -5.11408 -16.0789 -16.4216 1.2911 -14.8026 -6.53301 -17.1447 -17.9693
internal_weight=0 3452 319 51 268 3133 720 145 2413 247 575 29865 15955 8461 145 8316 2390 13910 13876 1115 7494 1654 5840 12761
internal_count=33317 3452 319 51 268 3133 720 145 2413 247 575 29865 15955 8461 145 8316 2390 13910 13876 1115 7494 1654 5840 12761
is_linear=0
shrinkage=0.03


Tree=7
num_leaves=24
num_cat=0
split_feature=1 55 56 113 49 72 109 111 26 109 117 1 62 1 73 63 1 109 93 1 106 56 55
split_gain=6.6454e+10 8.63997e+10 6.25283e+10 1.17187e+11 2.82505e+10 1.68891e+10 1.0274e+10 8.37592e+09 4.49737e+09 3.29579e+09 8.60368e+09 7.07378e+09 2.53314e+10 1.66578e+09 1.45984e+09 4.38047e+09 6.14385e+08 2.53621e+09 4.05246e+08 2.13877e+09 7.57242e+07 6.34524e+07 1.62108e+07
threshold=61.668350000000011 12.305000000000001 14.025 2.7350000000000008 6.6150000000000011 20.955000000000002 71.030000000000015 92.925000000000026 70.655000000000015 33.220000000000006 17.395000000000003 41.890577780000008 1.7750000000000001 30.355066665000006 16.905000000000005 2.1250000000000004 61.158350000000006 72.720000000000013 47.470000000000006 48.404383500000009 17.895000000000003 18.595000000000002 10.625000000000002
decision_type=2 2 2 2 2 2 2 2 2 2 2 2 2 2 2 2 2 2 2 2 2 2 2
left_child=9 6 4 -4 5 -3 7 -2 -9 10 11 13 -13 -1 22 -16 18 -18 19 -11 -19 -20 -8
right_child=1 2 3 -5 -6 -7 14 8 -10 16 -12 12 -14 -15 15 -17 17 20 21 -21 -22 -23 -24
leaf_value=182.68283444288298 787.37294236616651 250.29768022089931 2761.6597646077471 58.244486519290554 1224.661779501027 962.43773023297706 -19.47832077521544 392.85871258611263 23.83561371939523 -10.738617935068937 572.13859357910155 1167.6775176086426 74.341432146852028 -10.190517846109904 495.54278750610354 -1.4734331753887706 342.8771160611239 -22.494892949191005 -18.014305294552919 145.70620759391784 42.173828613281252 -8.6976009008341126 -35.040143781389503
leaf_weight=41 22 904 27 31 29 31 1378 46 84 4652 25 20 411 2364 20 79 22 88 22202 80 20 678 63
leaf_count=41 22 904 27 31 29 31 1378 46 84 4652 25 20 411 2364 20 79 22 88 22202 80 20 678 63
internal_value=0 142.274 360.069 1316.73 302.51 273.909 10.722 246.026 154.413 -12.6175 18.0395 13.155 125.076 -6.90245 -12.5027 98.9339 -15.7791 49.2863 -16.0854 -8.09374 -10.5192 -17.7382 -20.1587
internal_weight=0 2714 1022 58 964 935 1692 152 130 30603 2861 2836 431 2405 1540 99 27742 130 27612 4732 108 22880 1441
internal_count=33317 2714 1022 58 964 935 1692 152 130 30603 2861 2836 431 2405 1540 99 27742 130 27612 4732 108 22880 1441
is_linear=0
shrinkage=0.03


Tree=8
num_leaves=22
num_cat=0
split_feature=1 19 22 104 20 24 42 35 70 93 116 1 1 9 1 90 9 117 59 1 16
split_gain=6.25266e+10 8.08533e+10 4.12583e+10 3.09165e+10 6.35398e+10 1.23155e+10 9.74936e+09 1.60021e+10 3.79326e+09 2.69484e+09 1.24523e+10 5.72891e+09 3.36386e+09 1.54605e+09 5.83821e+08 2.47936e+09 3.76698e+08 2.26564e+09 1.94787e+08 1.51306e+08 1.47828e+08
threshold=61.668350000000011 11.635000000000003 11.805000000000001 15.245000000000003 8.7350000000000012 25.085000000000004 72.470000000000013 5.3050000000000006 9.9650000000000016 36.220000000000006 12.865 48.14986111000001 41.890577780000008 66.410000000000011 61.158350000000006 21.135000000000002 20.155000000000005 9.3150000000000031 46.410000000000004 62.658000000000008 2.2550000000000003
decision_type=2 2 2 2 2 2 2 2 2 2 2 2 2 2 2 2 2 2 2 2 2
left_child=9 6 -3 5 -5 -4 7 8 -2 10 11 12 -1 -8 16 20 17 -11 -18 -15 -16
right_child=1 2 3 4 -6 -7 13 -9 -10 14 -12 -13 -14 19 15 -17 18 -19 -20 -21 -22
leaf_value=-9.0664627070486947 69.713023149394445 1453.40129498291 182.89169632338272 1456.1913224182128 346.21306615629425 732.20106420663683 250.86429382324218 1009.7241800537109 439.57008781696186 -18.133971747321052 722.93466738614165 489.86933210199527 63.705190733053882 12.175073498998369 65.718062438964836 355.0641670532226 -9.7238546302688391 328.74368046569822 -17.199332208888194 -18.037493013605339 -24.451541432698566
leaf_weight=3099 179 30 632 60 205 39 20 20 29 111 22 22 701 168 20 20 3636 20 22862 1332 90
leaf_count=3099 179 30 632 60 205 39 20 20 29 111 22 22 701 168 20 20 3636 20 22862 1332 90
internal_value=0 138.006 358.272 323.172 597.529 214.819 16.28 199.213 121.28 -12.2389 11.2492 7.15267 4.35799 -11.16 -15.6131 47.8077 -15.9227 34.8244 -16.1736 -14.6537 -8.05707
internal_weight=0 2714 966 936 265 671 1748 228 208 30603 3844 3822 3800 1520 26759 130 26629 131 26498 1500 110
internal_count=33317 2714 966 936 265 671 1748 228 208 30603 3844 3822 3800 1520 26759 130 26629 131 26498 1500 110
is_linear=0
shrinkage=0.03


Tree=9
num_leaves=25
num_cat=0
split_feature=1 52 56 15 51 23 76 60 56 53 76 116 1 0 67 1 73 1 1 106 103 28 116 13
split_gain=5.88312e+10 7.89136e+10 6.83462e+10 1.08761e+11 2.84661e+10 1.96858e+10 4.21263e+09 6.53748e+09 3.3613e+09 1.38186e+10 2.22224e+09 1.06854e+10 4.64578e+09 2.58067e+10 6.6032e+08 5.44227e+08 6.88217e+09 1.24743e+10 4.89373e+08 4.56069e+08 1.10952e+09 3.37175e+08 9.09757e+07 7.46014e+07
threshold=61.668350000000011 12.135000000000003 14.025 1.7350000000000001 5.3850000000000007 13.505000000000001 68.155000000000015 0.22500000000000003 11.255000000000001 5.4350000000000014 30.970000000000002 12.425000000000002 41.890577780000008 -117.87205999999999 10.985000000000001 48.283450000000009 30.555000000000003 48.545112375000009 61.158350000000006 30.755000000000006 5.0150000000000006 95.805000000000021 12.425000000000002 8.0250000000000004
decision_type=2 2 2 2 2 2 2 2 2 2 2 2 2 2 2 2 2 2 2 2 2 2 2 2
left_child=10 6 4 -4 5 -3 7 21 23 -10 11 12 14 -14 -1 19 18 -18 -17 22 -21 -2 -12 -8
right_child=1 2 3 -5 -6 -7 8 -9 9 -11 15 -13 13 -15 -16 16 17 -19 -20 20 -22 -23 -24 -25
leaf_value=-11.645066584673796 109.41091717529297 217.59692804256076 3066.0306827218192 349.3714669036865 1401.579977783203 717.89260853160499 -17.656009792458484 505.87044828716074 -13.826984757049173 868.93259170532224 -17.103171689063377 706.08468571472156 809.64744968959269 10.654227560688467 44.394526264190674 -14.791518243085697 930.31168002319339 -24.770476512908935 46.373505685659552 41.855328041251376 -11.103408143911421 -39.686444049214209 2.2399995648483344 11.954707099066841
leaf_weight=1914 20 877 21 36 20 77 1402 38 79 20 22316 20 42 272 210 1247 20 32 130 393 3786 43 221 81
leaf_count=1914 20 877 21 36 20 77 1402 38 79 20 22316 20 42 272 210 1247 20 32 130 393 3786 43 221 81
internal_value=0 133.866 340.549 1350.25 281.46 257.977 7.25235 195.097 -4.74025 164.508 -11.8718 15.4837 9.81843 117.526 -6.10443 -14.2608 3.77684 342.569 -9.01704 -15.2256 -6.12308 7.64605 -16.9135 -16.0387
internal_weight=0 2714 1031 57 974 954 1683 101 1582 99 30603 2458 2438 314 2124 28145 1429 52 1377 26716 4179 63 22537 1483
internal_count=33317 2714 1031 57 974 954 1683 101 1582 99 30603 2458 2438 314 2124 28145 1429 52 1377 26716 4179 63 22537 1483
is_linear=0
shrinkage=0.03


Tree=10
num_leaves=25
num_cat=0
split_feature=1 57 113 67 76 28 61 51 76 86 76 113 17 103 76 1 86 59 105 57 16 65 113 63
split_gain=5.53543e+10 7.7464e+10 2.80033e+10 1.00832e+11 1.30652e+11 2.16927e+10 1.06326e+10 1.37895e+10 6.10362e+09 4.99159e+09 2.09091e+09 8.23372e+09 4.85602e+09 1.6704e+10 1.73385e+09 5.12063e+08 6.5533e+09 2.34996e+09 3.39399e+08 1.14563e+09 1.49082e+08 2.59986e+08 1.35678e+08 7.99679e+07
threshold=61.668350000000011 15.195000000000002 2.6750000000000003 6.4050000000000011 71.780000000000015 91.465000000000018 97.825000000000003 2.5350000000000006 62.470000000000006 17.945000000000004 30.970000000000002 13.245000000000003 12.915000000000001 5.6150000000000011 30.345000000000002 48.283450000000009 24.975000000000005 42.155000000000008 23.385000000000002 22.655000000000005 9.2750000000000004 3.3550000000000004 13.245000000000003 1.6850000000000003
decision_type=2 2 2 2 2 2 2 2 2 2 2 2 2 2 2 2 2 2 2 2 2 2 2 2
left_child=10 8 3 5 -5 -3 7 -4 -2 -8 11 12 14 -14 -1 18 17 -17 22 -20 23 -22 -12 -10
right_child=1 2 6 4 -6 -7 9 -9 20 -11 15 -13 13 -15 -16 16 -18 -19 19 -21 21 -23 -24 -25
leaf_value=-4.8504033087458112 499.99802202497204 1254.5824066692849 196.17012514513593 227.87124856567382 3656.9646792297362 304.82260405478098 6.9196496079656367 598.61395192557518 23.655314132335572 245.39037022348177 -16.704277710448011 556.68262664794918 -2.9124691128730773 990.35354894256579 107.06716300964355 290.3261986160278 542.89569181823731 -9.0906464371457432 124.67783099733551 -9.3989820371853767 -18.903081842237903 119.83181639099121 4.7362459962695951 -17.86038151028907
leaf_weight=2217 21 23 258 20 20 367 239 109 43 118 21223 25 64 20 132 24 20 1385 58 5166 31 20 269 1445
leaf_count=2217 21 23 258 20 20 367 239 109 43 118 21223 25 64 20 132 24 20 1385 58 5166 31 20 269 1445
internal_value=0 129.85 316.198 507.958 1942.42 360.834 202.308 315.697 -8.0003 85.7419 -11.5156 15.0192 9.45343 233.579 1.43871 -13.833 3.66354 -3.99057 -14.7689 -7.91038 -14.9321 35.5028 -16.4359 -16.6607
internal_weight=0 2714 1154 430 40 390 724 367 1560 357 30603 2458 2433 84 2349 28145 1429 1409 26716 5224 1539 51 21492 1488
internal_count=33317 2714 1154 430 40 390 724 367 1560 357 30603 2458 2433 84 2349 28145 1429 1409 26716 5224 1539 51 21492 1488
is_linear=0
shrinkage=0.03


Tree=11
num_leaves=26
num_cat=0
split_feature=0 52 56 113 0 116 2 109 111 68 109 112 62 106 47 109 2 0 65 47 109 50 81 69 56
split_gain=4.53852e+10 6.50078e+10 5.83237e+10 9.96954e+10 1.87283e+10 4.46569e+10 2.52104e+10 7.97167e+09 1.06896e+10 5.43691e+09 2.86702e+09 7.46161e+09 3.9128e+09 1.51364e+10 1.3446e+09 3.06492e+08 3.30496e+08 1.08133e+09 2.91568e+08 9.83872e+08 2.16505e+08 1.29463e+08 4.91414e+08 9.85407e+07 6.68848e+07
threshold=-141.19584499999999 12.135000000000003 14.025 2.8850000000000002 -147.73225369999997 2.1550000000000007 2457174.0000000005 71.030000000000015 92.605000000000004 0.76500000000000012 33.220000000000006 9.2050000000000018 1.6650000000000003 35.115000000000002 5.1150000000000011 49.030000000000008 2455731.0000000005 -119.78444999999998 0.87500000000000011 1.6250000000000002 48.590000000000011 2.4350000000000005 1.2650000000000003 12.625000000000002 17.605000000000004
decision_type=2 2 2 2 2 2 2 2 2 2 2 2 2 2 2 2 2 2 2 2 2 2 2 2 2
left_child=1 7 4 -4 6 -6 -3 8 -1 -10 11 12 13 -2 -14 16 17 -12 19 -9 -18 22 -17 -20 -23
right_child=10 2 3 -5 5 -7 -8 18 9 -11 15 -13 14 -15 -16 21 20 -19 23 -21 -22 24 -24 -25 -26
leaf_value=846.44001370239255 -21.746102076939174 89.064295667897085 2393.5011441827587 87.11750531828082 1266.8184745695153 271.20095378080327 552.09564542839041 -25.749948596191405 422.62424365703873 18.031310062408448 201.79436591033934 533.21482294006341 3.0690981082032831 763.28184085083001 192.91764479693245 -20.354810200675587 -12.952871534132775 2.2310360981760429 -18.707310429570768 223.21581546020505 28.459785113212391 -16.455093980910679 151.00444125366209 13.52162862141927 -9.4478880748031511
leaf_weight=20 84 690 31 37 49 235 125 50 39 128 25 25 2688 30 34 61 3930 1084 1664 20 117 20738 20 90 1303
leaf_count=20 84 690 31 37 49 235 125 50 39 128 25 25 2688 30 34 61 3930 1084 1664 20 117 20738 20 90 1303
internal_value=0 107.828 285.942 1138.56 233.187 442.98 160.081 4.46741 191.012 112.517 -11.3699 17.2007 12.6519 184.84 5.44046 -14.3665 -7.77961 6.72976 -14.6575 45.3831 -11.7556 -15.9017 21.9561 -17.0536 -16.0408
internal_weight=0 3178 1167 68 1099 284 815 2011 187 167 30139 2861 2836 114 2722 27278 5156 1109 1824 70 4047 22122 81 1754 22041
internal_count=33317 3178 1167 68 1099 284 815 2011 187 167 30139 2861 2836 114 2722 27278 5156 1109 1824 70 4047 22122 81 1754 22041
is_linear=0
shrinkage=0.03


Tree=12
num_leaves=22
num_cat=0
split_feature=104 41 6 32 118 24 115 93 58 31 54 79 31 103 65 107 106 65 41 56 37
split_gain=4.96393e+09 1.3166e+10 2.73402e+10 1.55951e+10 2.22407e+10 8.42913e+09 1.89249e+09 1.33935e+10 1.09679e+09 4.2456e+09 9.01285e+08 1.35235e+10 2.01111e+09 6.38788e+08 1.49314e+09 4.40599e+08 1.86138e+08 1.74269e+08 1.15464e+08 3.64043e+06 2.97301e+06
threshold=11.045000000000002 11.735000000000001 26.765000000000004 1.2050000000000003 0.57500000000000007 32.265000000000008 10.295000000000002 35.780000000000008 8.7350000000000012 0.80500000000000016 14.925000000000002 1.5450000000000002 0.22500000000000003 13.555000000000001 0.99500000000000011 17.015000000000004 23.285000000000004 0.87500000000000011 11.945000000000002 16.555000000000003 12.615
decision_type=2 2 2 2 2 2 2 2 2 2 2 2 2 2 2 2 2 2 2 2 2
left_child=6 2 3 4 -2 -5 10 -8 9 -3 15 -12 -13 14 -10 17 19 -1 -15 -9 -11
right_child=1 8 -4 5 -6 -7 7 16 13 20 11 12 -14 18 -16 -17 -18 -19 -20 -21 -22
leaf_value=13.194713519342343 791.94905518132987 483.15980584716795 1085.4533059825067 30.060455618691801 138.58562681953862 632.53324654715391 818.02386243438718 -19.267958024051211 129.4415693838385 -30.001331176757812 790.9714416503906 267.67007198333744 -12.416260044107485 33.57465970126065 -1.9032284692464922 124.22865674700057 72.886355063698502 -13.620669958928193 -15.239737734459959 -32.908962576729913 -15.892931872111994
leaf_weight=221 55 20 23 4398 318 21 20 109 79 20 20 24 597 44 5575 21 22 16738 4930 21 41
leaf_count=221 55 20 23 4398 318 21 20 109 79 20 20 24 597 44 5575 21 22 16738 4930 21 41
internal_value=0 12.3972 53.5996 48.647 234.926 32.9235 -10.8163 88.2133 -6.12827 103.846 -11.7829 23.1373 -1.59167 -6.96643 -0.0680252 -13.1012 -7.81445 -13.2712 -14.8079 -21.4715 -20.5186
internal_weight=0 15524 4815 4792 373 4419 17793 172 10709 81 17621 641 621 10628 5654 16980 152 16959 4974 130 61
internal_count=33317 15524 4815 4792 373 4419 17793 172 10709 81 17621 641 621 10628 5654 16980 152 16959 4974 130 61
is_linear=0
shrinkage=0.03


Tree=13
num_leaves=26
num_cat=0
split_feature=0 19 56 30 56 16 9 106 9 9 112 56 67 13 64 73 60 68 73 0 80 46 51 112 107
split_gain=4.23667e+10 6.07427e+10 6.5697e+10 8.86072e+10 2.36091e+10 3.70388e+10 6.27906e+09 1.65972e+10 4.97618e+09 2.17688e+09 1.27037e+10 2.77218e+09 9.43078e+09 1.03566e+09 9.32232e+08 3.19726e+08 1.46948e+09 2.49262e+08 1.49305e+08 1.10561e+09 2.75639e+09 1.6721e+08 4.57096e+08 4.75309e+07 3.90208e+07
threshold=-141.19584499999999 11.635000000000003 14.025 2.9850000000000008 7.8150000000000004 6.1650000000000009 73.155000000000015 21.415000000000003 64.030000000000015 40.030000000000008 9.6000000000000014 18.425000000000004 4.6350000000000007 2.6950000000000007 4.455000000000001 20.225000000000005 0.055000000000000007 0.33500000000000008 30.555000000000003 -116.82970979999997 2.2850000000000006 1.5050000000000001 0.75500000000000012 6.1150000000000011 6.6250000000000009
decision_type=2 2 2 2 2 2 2 2 2 2 2 2 2 2 2 2 2 2 2 2 2 2 2 2 2
left_child=1 6 4 -4 13 -6 7 8 -1 10 11 14 -13 -3 -2 17 -17 -8 21 20 -20 22 -11 -21 -23
right_child=9 2 3 -5 5 -7 15 -9 -10 18 -12 12 -14 -15 -16 16 -18 -19 19 23 -22 24 -24 -25 -26
leaf_value=386.31859699816312 -9.0019323432356639 78.966643863453569 2767.1073842551491 350.49437186559044 271.20373962849908 1298.6408967174184 35.458530903866418 921.64076801465899 1.7930595023332241 -19.861266353441323 726.55842150254682 460.45721740722655 28.465578346087444 -46.913556359775406 88.134878029456502 254.40494343150746 -50.846620124816894 -14.480039554447323 327.23475775582449 -15.319508831569941 16.94686894148127 -14.485868561682276 151.9308046875 -0.14498561718247152 -17.052037360992465
leaf_weight=37 3890 85 22 36 733 33 95 23 167 46 22 48 867 191 91 22 40 1694 28 3009 323 11995 20 198 9602
leaf_count=37 3890 85 22 36 733 33 95 23 167 46 22 48 867 191 91 22 40 1694 28 3009 323 11995 20 198 9602
internal_value=0 104.181 284.448 1267.14 229.75 315.467 8.75524 157.669 71.5354 -10.9853 7.27301 4.04092 51.1274 -8.1461 -6.78152 -9.50707 57.4685 -11.8282 -14.5456 -8.85011 41.6992 -15.4811 32.1969 -14.3826 -15.6268
internal_weight=0 3178 1100 58 1042 766 2078 227 204 30139 4918 4896 915 276 3981 1851 62 1789 25221 3558 351 21663 66 3207 21597
internal_count=33317 3178 1100 58 1042 766 2078 227 204 30139 4918 4896 915 276 3981 1851 62 1789 25221 3558 351 21663 66 3207 21597
is_linear=0
shrinkage=0.03


Tree=14
num_leaves=21
num_cat=0
split_feature=1 57 56 29 51 0 93 112 1 17 93 1 86 42 1 56 1 17 45 72
split_gain=4.61994e+10 6.48702e+10 4.56156e+10 7.0913e+10 2.1665e+10 1.71642e+10 2.08252e+09 8.3068e+09 5.1169e+09 3.79614e+09 2.02522e+09 4.17578e+08 2.10585e+09 2.74273e+08 1.54538e+09 2.07212e+08 1.05501e+09 1.45588e+08 1.43381e+08 1.27552e+08
threshold=61.668350000000011 15.195000000000002 14.025 2.4150000000000005 5.5650000000000004 -142.26784999999998 36.220000000000006 9.6000000000000014 48.14986111000001 12.915000000000001 60.720000000000006 61.158350000000006 15.955000000000002 71.590000000000018 64.580550000000002 17.605000000000004 48.404383500000009 11.095000000000001 1.5450000000000002 30.145000000000003
decision_type=2 2 2 2 2 2 2 2 2 2 2 2 2 2 2 2 2 2 2 2
left_child=6 10 4 -4 5 -3 7 8 9 -1 -2 15 18 14 -12 19 -17 -15 -13 -8
right_child=1 2 3 -5 -6 -7 11 -9 -10 -11 13 12 -14 17 -16 16 -18 -19 -20 -21
leaf_value=-1.6944425740502946 292.42308398437495 189.40007481361906 1882.6914998098521 -39.603472477082278 1195.4328765869138 663.08130816279231 -14.879012653674598 534.48297682020393 462.62183737668124 168.40688386729505 258.93659672823816 61.321934051513672 323.3183887939453 -16.61853623729175 -23.866011514318991 -7.9306316732956184 135.81235461945226 36.525165481567385 -27.481016438802083 -1.2974577489019559
leaf_weight=3673 20 989 39 31 21 74 23878 27 22 122 22 20 20 1387 83 2065 47 48 90 639
leaf_count=3673 20 989 39 31 21 74 23878 27 22 122 22 20 20 1387 83 2065 47 48 90 639
internal_value=0 118.627 289.156 1031.39 241.226 222.375 -10.5203 10.1276 6.41856 3.7739 -7.52084 -13.4865 40.1501 -11.4162 35.3879 -13.7483 -4.73181 -14.8409 -11.335 -14.525
internal_weight=0 2714 1154 70 1084 1063 30603 3844 3817 3795 1560 26759 130 1540 105 26629 2112 1435 110 24517
internal_count=33317 2714 1154 70 1084 1063 30603 3844 3817 3795 1560 26759 130 1540 105 26629 2112 1435 110 24517
is_linear=0
shrinkage=0.03


Tree=15
num_leaves=26
num_cat=0
split_feature=1 55 23 56 116 66 110 108 109 13 101 109 115 1 63 1 65 50 1 109 23 1 73 110 70
split_gain=4.3469e+10 5.81389e+10 5.2397e+10 6.47692e+10 2.97587e+10 1.75939e+11 1.30046e+10 1.16006e+10 7.8311e+09 8.25449e+09 7.45473e+09 2.47131e+09 6.57634e+09 6.13721e+09 2.22488e+10 1.56843e+09 9.8692e+08 2.3835e+09 3.90729e+08 2.16645e+09 2.69491e+08 1.34036e+09 9.63897e+07 8.15201e+07 7.68304e+07
threshold=61.668350000000011 12.305000000000001 13.505000000000001 13.125000000000002 2.1550000000000007 4.1650000000000009 0.56500000000000006 8.3900000000000023 71.030000000000015 2.2350000000000008 3.4850000000000008 33.220000000000006 10.295000000000002 41.890577780000008 2.7050000000000005 30.355066665000006 0.87500000000000011 5.2250000000000005 61.158350000000006 72.720000000000013 17.915000000000003 48.404383500000009 32.295000000000009 0.19500000000000003 9.7950000000000017
decision_type=2 2 2 2 2 2 2 2 2 2 2 2 2 2 2 2 2 2 2 2 2 2 2 2 2
left_child=11 8 4 7 5 -3 -6 -4 9 -2 -11 12 13 15 -15 -1 17 -10 20 -20 22 -22 -13 -21 -18
right_child=1 2 3 -5 6 -7 -8 -9 16 10 -12 18 -14 14 -16 -17 24 -19 19 23 21 -23 -24 -25 -26
leaf_value=176.5626125503168 780.54653530883786 147.144689679827 -41.282024810791015 2014.7684741928997 298.32686733921594 3234.6996617431637 55.666582777230637 793.00514733886712 -24.221686466761998 20.255724160936143 604.78556411743159 -14.649550850752423 431.08413474587832 1092.6802786560058 68.025675142281244 -10.595865981023023 -17.056049001967708 373.68857382202145 310.29227250532671 38.343689941406247 -6.1506482867004184 173.62737328780324 -8.4108942079577869 -28.754252357482908 -65.560338775634762
leaf_weight=41 20 98 30 34 350 20 460 30 42 108 24 23007 34 20 411 2355 1448 20 22 20 2099 38 2468 88 30
leaf_count=41 20 98 30 34 350 20 460 30 42 108 24 23007 34 20 411 2355 1448 20 22 20 2099 38 2468 88 30
internal_value=0 115.068 293.727 968.658 225.361 670.459 160.52 375.862 7.15478 212.588 126.534 -10.2047 16.3421 11.3541 115.573 -7.39324 -13.1218 104.136 -12.9425 38.9456 -13.1868 -2.95385 -14.0452 -16.3287 -18.0406
internal_weight=0 2714 1022 94 928 118 810 60 1692 152 132 30603 2861 2827 431 2396 1540 62 27742 130 27612 2137 25475 108 1478
internal_count=33317 2714 1022 94 928 118 810 60 1692 152 132 30603 2861 2827 431 2396 1540 62 27742 130 27612 2137 25475 108 1478
is_linear=0
shrinkage=0.03


Tree=16
num_leaves=24
num_cat=0
split_feature=0 23 92 41 55 116 64 24 64 0 59 112 114 90 0 15 63 23 64 106 114 72 42
split_gain=3.53667e+10 5.54416e+10 4.4306e+10 7.26147e+10 2.63319e+10 2.90287e+10 1.6359e+11 1.63437e+10 1.13403e+10 2.94643e+09 9.85085e+09 1.68634e+09 8.96499e+09 1.47157e+09 4.54537e+09 1.20276e+10 1.44284e+09 1.05216e+09 7.47168e+08 2.88245e+08 9.1456e+07 9.13022e+07 2.21578e+07
threshold=-141.19584499999999 13.505000000000001 8.8800000000000008 10.485000000000001 12.305000000000001 2.1550000000000007 1.5250000000000001 21.785000000000004 0.16500000000000004 -142.26784999999998 76.845000000000013 10.075000000000001 4.7350000000000012 30.555000000000003 -116.82970979999997 7.3150000000000004 3.4150000000000005 10.275 4.455000000000001 35.115000000000002 6.2750000000000012 30.145000000000003 51.470000000000006
decision_type=2 2 2 2 2 2 2 2 2 2 2 2 2 2 2 2 2 2 2 2 2 2 2
left_child=1 4 7 -4 9 6 -6 16 -7 17 -11 13 -13 19 15 -15 -3 -1 -16 21 -14 -2 -22
right_child=11 2 3 -5 5 8 -8 -9 -10 10 -12 12 20 14 18 -17 -18 -19 -20 -21 22 -23 -24
leaf_value=-12.318040414071097 -13.978097903741977 193.92413705679087 2789.1874144592284 317.52701532778531 123.05590926404268 630.07316180889416 2965.8159436590017 830.09132122333233 107.3064556605916 756.66243708801267 -24.725256819815005 681.99360987854004 34.588642178703758 48.884952086384601 -10.1569958753244 793.08179937744137 -73.450149408228256 61.919971297498769 56.537925516550359 77.614390942973472 -51.492538146972656 48.602831769670757 -15.030670845031738
leaf_weight=1711 24031 39 20 23 106 39 22 39 881 20 53 20 34 860 4886 20 34 191 156 31 20 21 60
leaf_count=1711 24031 39 20 23 106 39 22 39 881 20 53 20 34 860 4886 20 34 191 156 31 20 21 60
internal_value=0 95.186 648.556 1467.14 66.8128 188.36 611.655 334.279 129.467 2.31562 189.354 -10.0369 96.1507 -10.5111 2.88678 65.7985 69.3936 -4.86301 -8.09345 -13.8056 -6.62875 -13.9235 -24.1461
internal_weight=0 3178 155 43 3023 1048 128 112 920 1975 73 30139 134 30005 5922 880 73 1902 5042 24083 114 24052 80
internal_count=33317 3178 155 43 3023 1048 128 112 920 1975 73 30139 134 30005 5922 880 73 1902 5042 24083 114 24052 80
is_linear=0
shrinkage=0.03


Tree=17
num_leaves=23
num_cat=0
split_feature=1 56 88 73 29 112 27 111 48 112 76 56 105 17 76 76 1 1 112 39 1 79
split_gain=3.87756e+10 5.0668e+10 5.34709e+10 2.61909e+10 2.03299e+10 1.68813e+10 3.55182e+10 1.35553e+10 5.97632e+09 1.60796e+09 8.95602e+09 1.53277e+09 3.27103e+09 1.57177e+10 3.767e+08 3.29464e+08 2.13455e+09 3.50333e+08 2.71312e+08 2.12289e+08 9.53206e+07 1.72205e+07
threshold=61.668350000000011 13.125000000000002 15.925000000000002 14.305000000000001 1.7750000000000001 1.1650000000000003 0.64500000000000013 97.015000000000015 2.8750000000000004 10.075000000000001 44.655000000000008 18.595000000000002 24.285000000000004 12.915000000000001 67.410000000000011 48.155000000000008 48.404383500000009 61.158350000000006 6.8050000000000006 11.405000000000003 37.017938890000003 8.1350000000000033
decision_type=2 2 2 2 2 2 2 2 2 2 2 2 2 2 2 2 2 2 2 2 2 2
left_child=9 3 4 14 -3 6 -5 -7 -6 11 -11 15 18 -14 -2 16 -1 -17 -13 -16 -12 -22
right_child=1 2 -4 5 8 7 -8 -9 -10 10 20 12 13 -15 19 17 -18 -19 -20 -21 21 -23
leaf_value=-7.552173417550005 101.86089592895507 957.16246909005292 1658.1850641043525 1136.8341712570191 -79.037773408560909 273.26447490123803 -23.382880846388794 57.322623060298078 404.98731982582495 679.54660116577145 50.273763240467417 -14.466979482873406 43.760567556868793 878.24256958007811 -13.426940967090312 -13.882468103316675 167.97075395856584 35.50998928598257 39.983093008778312 -79.004781805950657 -25.592764950551484 4.5469689039750536
leaf_weight=6104 25 35 35 48 58 443 47 639 38 20 22 1285 622 21 1300 22150 63 130 88 46 76 22
leaf_count=6104 25 35 35 48 58 443 47 639 38 20 22 1285 622 21 1300 22150 63 130 88 46 76 22
internal_value=0 108.679 616.521 75.5933 338.214 179.4 562.832 145.735 112.555 -9.63808 91.7996 -10.1043 15.1739 71.0143 -13.525 -11.8957 -5.75909 -13.5943 -10.9771 -15.6681 -6.15828 -18.8267
internal_weight=0 2714 166 2548 131 1177 95 1082 96 30603 140 30463 2016 643 1371 28447 6167 22280 1373 1346 120 98
internal_count=33317 2714 166 2548 131 1177 95 1082 96 30603 140 30463 2016 643 1371 28447 6167 22280 1373 1346 120 98
is_linear=0
shrinkage=0.03


Tree=18
num_leaves=25
num_cat=0
split_feature=0 23 56 75 91 0 47 56 108 76 9 9 115 0 56 66 47 56 69 72 0 46 35 91
split_gain=3.13275e+10 5.06716e+10 5.57399e+10 2.6835e+10 2.54453e+10 2.92032e+10 3.93982e+10 1.79619e+10 1.13755e+10 2.08761e+09 2.36912e+09 1.82152e+09 7.39587e+09 1.01903e+10 2.33845e+09 1.18148e+10 1.45344e+09 6.71753e+08 1.07784e+08 2.75402e+09 5.08888e+08 1.96729e+08 3.96642e+08 5.09907e+07
threshold=-141.19584499999999 13.505000000000001 13.125000000000002 8.3900000000000023 8.4950000000000028 -145.47344999999999 1.4550000000000003 14.285000000000002 8.3900000000000023 61.220000000000006 63.410000000000004 40.030000000000008 10.295000000000002 -105.78527777999999 18.425000000000004 2.5350000000000006 5.1150000000000011 10.845000000000001 22.985000000000003 21.935000000000006 -116.46425999999998 1.5050000000000001 1.655 6.4250000000000007
decision_type=2 2 2 2 2 2 2 2 2 2 2 2 2 2 2 2 2 2 2 2 2 2 2 2
left_child=1 4 8 -4 9 7 -7 -6 17 -1 -11 12 14 -14 16 -16 -2 -3 21 -20 -21 22 -13 -23
right_child=11 2 3 -5 5 6 -8 -9 -10 10 -12 18 13 -15 15 -17 -18 -19 19 20 -22 23 -24 -25
leaf_value=276.43936614990236 -8.1880238967217753 -83.189176122665401 775.29638192983771 2166.4174162292479 94.439020535283916 302.44037066291361 1447.4578044956752 943.61581516431715 649.35061424461571 223.39690530395507 -9.9050939190236829 -19.766918057528407 -31.68195043149202 894.22925170898429 704.17368087768546 29.484417738647458 149.97151888577443 108.40024736676897 334.30875057765411 29.891869658005724 -12.709553159069097 -12.469052683654317 149.54465048217773 -15.47322668824477
leaf_weight=24 3923 40 26 24 886 119 35 23 37 40 1896 33 23 20 24 875 53 28 21 269 4079 11945 20 8854
leaf_count=24 3923 40 26 24 886 119 35 23 37 40 1896 33 23 20 24 875 53 28 21 269 4079 11945 20 8854
internal_value=0 89.5857 618.615 1443.03 62.4604 180.647 562.672 115.925 226.034 -1.63757 -5.0848 -9.44634 7.25535 398.974 3.80019 47.4961 -6.07976 -4.29941 -12.7031 -8.4186 -10.0739 -13.6008 44.1242 -13.7479
internal_weight=0 3178 155 50 3023 1063 154 909 105 1960 1936 30139 4918 43 4875 899 3976 68 25221 4369 4348 20852 53 20799
internal_count=33317 3178 155 50 3023 1063 154 909 105 1960 1936 30139 4918 43 4875 899 3976 68 25221 4369 4348 20852 53 20799
is_linear=0
shrinkage=0.03


Tree=19
num_leaves=26
num_cat=0
split_feature=2 116 47 35 32 79 83 9 117 77 37 102 41 89 24 2 81 37 113 8 17 117 71 96 116
split_gain=9.48672e+09 2.58661e+10 5.7237e+10 1.41191e+10 1.5202e+10 6.91168e+09 1.62404e+10 2.91028e+10 6.13281e+09 3.76202e+09 2.57591e+09 1.18615e+09 5.46405e+09 1.44314e+10 7.37736e+09 1.41934e+09 2.48719e+09 6.05232e+09 2.01513e+09 4.52237e+08 1.56323e+09 4.6775e+08 1.01388e+08 3.74422e+08 1.02995e+08
threshold=2453838.5000000005 2.1550000000000007 2.1850000000000005 0.38500000000000006 1.2750000000000001 1.7250000000000003 2.7050000000000005 75.280000000000015 17.395000000000003 4.9250000000000007 11.385000000000003 18.855000000000004 11.735000000000001 28.515000000000004 32.135000000000012 2455357.0000000005 0.32500000000000007 9.6150000000000002 1.7550000000000001 10.505000000000001 3.3850000000000002 11.295000000000002 14.145000000000001 1.8250000000000004 11.845000000000001
decision_type=2 2 2 2 2 2 2 2 2 2 2 2 2 2 2 2 2 2 2 2 2 2 2 2 2
left_child=1 2 3 -1 -5 6 9 -8 10 -3 -7 15 13 14 -13 16 17 -2 -18 20 -14 -21 24 -24 -17
right_child=11 5 -4 4 -6 8 7 -9 -10 -11 -12 12 19 -15 -16 22 18 -19 -20 21 -22 -23 23 -25 -26
leaf_value=867.30347567138665 51.47676840049342 1.8579576487154574 1857.733805847168 614.91266286996688 -66.872962791442873 -7.2003572209024851 1166.4739984654018 123.15184747472986 508.32543498646129 426.98090890502931 70.875839968105765 34.340911281934154 273.37419248308453 851.48671277618405 587.11249644886368 -13.419062343168067 235.05282103594612 625.66519885253911 1.48665456664825 -10.6723578925395 9.2327984298615746 20.058057696138828 74.584034603343284 -7.9053773226821633 5.337473418677031
leaf_weight=25 95 296 21 39 120 2343 35 77 22 20 454 1768 21 20 22 15633 34 20 1497 7746 507 473 51 1710 268
leaf_count=25 95 296 21 39 120 2343 35 77 22 20 454 1768 21 20 22 15633 34 20 1497 7746 507 473 51 1710 268
internal_value=0 47.0861 373.911 204.562 100.357 26.4519 138.782 449.19 9.39707 28.7645 5.47272 -5.44253 2.64301 50.0889 41.1348 -9.86344 16.7806 151.336 6.67362 -7.17489 19.7384 -8.90384 -12.3465 -5.51642 -13.1029
internal_weight=0 3452 205 184 159 3247 428 112 2819 316 2797 29865 10557 1810 1790 19308 1646 115 1531 8747 528 8219 17662 1761 15901
internal_count=33317 3452 205 184 159 3247 428 112 2819 316 2797 29865 10557 1810 1790 19308 1646 115 1531 8747 528 8219 17662 1761 15901
is_linear=0
shrinkage=0.03


Tree=20
num_leaves=23
num_cat=0
split_feature=1 57 56 113 16 101 0 109 109 113 1 109 1 109 1 1 109 33 1 109 0 22
split_gain=3.38396e+10 4.94187e+10 3.63025e+10 7.73523e+10 2.84722e+10 6.31874e+10 1.54096e+10 4.3036e+09 2.17462e+09 9.71846e+09 6.55462e+09 4.16454e+10 2.16123e+09 3.87371e+08 1.3935e+09 5.35288e+08 2.88167e+08 1.39488e+09 2.66983e+08 1.79223e+09 1.00356e+08 5.51311e+07
threshold=61.668350000000011 15.195000000000002 14.025 3.0550000000000002 6.1650000000000009 1.3050000000000004 -145.47344999999999 62.280000000000008 28.280000000000005 13.245000000000003 41.966200000000008 27.530000000000005 30.355066665000006 38.530000000000008 48.283450000000009 42.750250000000008 69.655000000000015 5.0150000000000006 61.158350000000006 72.720000000000013 -119.35719999999999 10.575000000000001
decision_type=2 2 2 2 2 2 2 2 2 2 2 2 2 2 2 2 2 2 2 2 2 2
left_child=8 7 4 -4 6 -6 -3 -2 9 10 12 -12 -1 14 15 -10 17 -9 20 -20 -15 -18
right_child=1 2 3 -5 5 -7 -8 16 13 -11 11 -13 -14 18 -16 -17 21 -19 19 -21 -22 -23
leaf_value=257.72852019667624 417.98641107831679 110.40982118253181 1909.7716190708704 -84.75064540754046 1961.9511084453875 52.650679509089542 401.95757555793313 -35.905229695638013 -8.7442605501078869 680.79070097351064 23.236066323689052 1478.3741916503907 -8.2034725120076804 -7.1320796359031595 237.77002349853515 25.517045175212704 -15.641513327368083 257.38217080879213 277.59871865012423 -19.47652476840549 -12.971568060321072 -37.543347963605605
leaf_weight=28 21 815 35 35 26 39 204 54 2085 20 154 20 1554 2992 22 511 1353 20 22 108 23087 112
leaf_count=28 21 815 35 35 26 39 204 54 2085 20 154 20 1554 2992 22 511 1353 20 22 108 23087 112
internal_value=0 101.526 250.367 912.51 207.608 816.371 168.777 -8.57779 -9.00375 23.215 15.7255 190.493 -3.49671 -10.9887 0.0146552 -2.00022 -14.3984 43.3616 -12.0878 30.7977 -12.3016 -17.3159
internal_weight=0 2714 1154 70 1084 65 1019 1560 30603 1776 1756 174 1582 28827 2618 2596 1539 74 26209 130 26079 1465
internal_count=33317 2714 1154 70 1084 65 1019 1560 30603 1776 1756 174 1582 28827 2618 2596 1539 74 26209 130 26079 1465
is_linear=0
shrinkage=0.03


Tree=21
num_leaves=23
num_cat=0
split_feature=112 32 64 16 88 25 117 37 18 112 106 37 37 15 50 106 77 37 67 106 57 36
split_gain=4.40655e+09 1.31816e+10 5.78239e+10 4.13402e+09 2.20417e+09 5.37711e+09 9.42936e+09 2.24922e+10 2.7514e+09 1.68127e+09 9.91493e+09 1.50144e+09 1.32676e+10 1.35571e+09 1.29565e+09 1.25494e+09 5.42042e+08 4.59641e+08 5.72032e+09 2.2383e+08 8.04525e+07 4.30873e+07
threshold=1.1650000000000003 1.1050000000000002 1.3750000000000002 6.7350000000000012 10.895000000000001 9.3850000000000033 4.9850000000000012 9.3050000000000015 0.35500000000000004 10.075000000000001 23.065000000000001 1.8650000000000004 1.6250000000000002 0.84500000000000008 5.3450000000000006 14.115 0.40500000000000008 12.475000000000003 4.7950000000000008 30.875000000000004 22.935000000000006 7.8350000000000009
decision_type=2 2 2 2 2 2 2 2 2 2 2 2 2 2 2 2 2 2 2 2 2 2
left_child=1 2 14 13 9 6 7 -6 -8 17 21 12 -7 -3 20 -13 -15 19 -19 -2 -1 -11
right_child=4 3 -4 -5 5 11 8 -9 -10 10 -12 15 -14 16 -16 -17 -18 18 -20 -21 -22 -23
leaf_value=-63.389318103790281 -10.901726712419995 199.59404604230608 1643.9549124023436 435.58158160400387 51.588392038790538 9.548467672416141 162.98613218307494 517.45754367544623 10.578991259701528 -12.028990422718561 712.42753765869134 138.20342802845349 549.83390893270803 -44.21953396244475 211.52856147357394 -5.4458391051618573 17.6501405899613 515.38620991516109 -1.2841551111009384 16.534883077924743 -0.87254524924538357 -58.180130456542962
leaf_weight=32 16577 28 25 20 407 840 112 121 2214 67 20 55 43 268 28 11316 243 20 540 272 44 25
leaf_count=32 16577 28 25 20 407 840 112 121 2214 67 20 55 43 268 28 11316 243 20 540 272 44 25
internal_value=0 75.1355 348.487 12.0544 -1.58427 6.8126 43.8981 158.35 17.9176 -8.82473 107.037 -1.82474 35.8591 -3.66089 37.0764 -4.75103 -14.7981 -9.57012 17.1684 -10.4588 -27.1954 -24.5701
internal_weight=0 688 129 559 32629 15108 2854 528 2326 17521 112 12254 883 539 104 11371 511 17409 560 16849 76 92
internal_count=33317 688 129 559 32629 15108 2854 528 2326 17521 112 12254 883 539 104 11371 511 17409 560 16849 76 92
is_linear=0
shrinkage=0.03


Tree=22
num_leaves=27
num_cat=0
split_feature=1 19 25 104 10 11 37 92 14 9 31 14 9 116 1 17 1 68 12 40 1 52 47 73 1 91
split_gain=3.14503e+10 4.56304e+10 3.47299e+10 5.69563e+10 8.54352e+10 2.72461e+10 1.1609e+10 2.46947e+10 6.19363e+09 5.25068e+09 1.23808e+10 6.7291e+09 1.60499e+09 6.92511e+09 2.34791e+09 9.0639e+09 1.49396e+09 5.91458e+08 2.99442e+09 3.58772e+08 2.48281e+08 1.59002e+09 1.52986e+08 9.59313e+07 4.1537e+09 7.36262e+07
threshold=61.668350000000011 11.635000000000003 8.8250000000000011 15.695000000000002 0.31500000000000006 93.77500000000002 12.335000000000003 8.4500000000000011 0.16500000000000004 73.155000000000015 3.0350000000000006 0.29500000000000004 40.030000000000008 12.425000000000002 41.890577780000008 12.915000000000001 30.355066665000006 0.33500000000000008 1.7350000000000001 15.525 61.158350000000006 14.325000000000001 0.54500000000000015 30.555000000000003 48.404383500000009 7.7650000000000006
decision_type=2 2 2 2 2 2 2 2 2 2 2 2 2 2 2 2 2 2 2 2 2 2 2 2 2 2
left_child=12 9 3 5 -5 -3 8 -8 -4 10 11 -2 13 14 16 -16 -1 18 -11 -19 23 22 -22 25 -25 -14
right_child=1 2 6 4 -6 -7 7 -9 -10 17 -12 -13 20 -15 15 -17 -18 19 -20 -21 21 -23 -24 24 -26 -27
leaf_value=163.03777299611463 591.02688858032229 992.37810192108145 533.7523237410835 2350.4979881147906 -97.268695547921311 211.00455047979585 964.6344837064521 116.74612112565472 28.805869449943437 386.01149196624755 859.40802809143065 7.1617058124182353 -11.229001417878488 410.44171283521149 29.757330800343411 597.07670481755179 -8.9603668976959128 -12.38880683928706 -31.578028806798596 -67.37650375497752 59.981671920776364 275.72251519775392 -31.747463175455728 -10.557293895320258 317.87934991019108 -14.777015450493014
leaf_weight=46 20 48 23 33 21 246 43 110 442 20 20 159 13274 38 1007 26 3801 1345 68 116 20 20 90 3523 35 8723
leaf_count=46 20 48 23 33 21 246 43 110 442 20 20 159 13274 38 1007 26 3801 1345 68 116 20 20 90 3523 35 8723
internal_value=0 97.8764 263.349 503.061 1398.59 338.576 128.365 355.042 53.7817 6.43119 151.495 72.398 -8.68008 7.0207 3.87931 44.0364 -6.90372 -12.2051 63.3287 -16.7547 -11.6864 29.6678 -15.0694 -11.8967 -7.32647 -12.636
internal_weight=0 2714 966 348 54 294 618 153 465 1748 199 179 30603 4918 4880 1033 3847 1549 88 1461 25685 130 110 25555 3558 21997
internal_count=33317 2714 966 348 54 294 618 153 465 1748 199 179 30603 4918 4880 1033 3847 1549 88 1461 25685 130 110 25555 3558 21997
is_linear=0
shrinkage=0.03


Tree=23
num_leaves=24
num_cat=0
split_feature=2 116 66 56 98 112 87 12 60 109 109 56 97 99 2 113 65 88 25 2 14 116 88
split_gain=8.20058e+09 2.30438e+10 4.95869e+10 1.39723e+11 6.94742e+09 6.5096e+09 6.26355e+09 1.23394e+10 1.92012e+09 1.12786e+09 6.00603e+09 3.42054e+10 1.39995e+09 3.02483e+09 7.77136e+08 2.3769e+09 2.15195e+09 8.33976e+08 2.89029e+09 3.80204e+08 2.1137e+08 1.09862e+08 2.77094e+07
threshold=2453838.5000000005 2.1550000000000007 4.4650000000000007 8.0950000000000006 1.175 9.6000000000000014 8.2350000000000012 2.1950000000000007 2.0650000000000004 28.280000000000005 27.530000000000005 18.885000000000002 3.7050000000000005 9.0250000000000004 2455336.0000000005 1.7550000000000001 0.87500000000000011 13.835000000000003 10.985000000000001 2456175.0000000005 4.2650000000000006 3.0150000000000001 19.015000000000004
decision_type=2 2 2 2 2 2 2 2 2 2 2 2 2 2 2 2 2 2 2 2 2 2 2
left_child=1 2 4 -4 -1 6 20 -8 -6 10 12 22 19 -14 15 -11 -17 21 -19 -2 -3 -16 -12
right_child=9 5 3 -5 8 -7 7 -9 -10 14 11 -13 13 -15 17 16 -18 18 -20 -21 -22 -23 -24
leaf_value=452.42237182617185 14.002027438444395 -11.738466032680712 -121.10611306762695 3116.0597232513428 -88.495841077721636 563.86459574890137 222.8217119329986 8.9287763306003818 199.23287946065267 242.8921783682016 -25.37478117130421 1264.3355296524712 445.21334294128417 3.2873979949951169 -17.708883019623002 243.33555539299459 2.7495377990717906 35.559815408500434 -8.3751323445553556 -18.36915749243779 25.315564907125175 -10.817663477548098 14.056234588623047
leaf_weight=36 576 1976 30 20 92 20 361 741 27 39 81 23 20 46 2432 34 2109 1637 7623 754 149 14471 20
leaf_count=36 576 1976 30 20 92 20 361 741 27 39 81 23 20 46 2432 34 2109 1637 7623 754 149 14471 20
internal_value=0 43.7781 352.258 1173.76 87.2573 24.3021 20.9581 78.9972 -23.2129 -5.06017 20.1157 220.206 2.34263 137.204 -6.41022 10.7905 6.56658 -7.84477 -0.608231 -4.34976 -9.14032 -11.8092 -17.5667
internal_weight=0 3452 205 50 155 3247 3227 1102 119 29865 1520 124 1396 66 28345 2182 2143 26163 9260 1330 2125 16903 101
internal_count=33317 3452 205 50 155 3247 3227 1102 119 29865 1520 124 1396 66 28345 2182 2143 26163 9260 1330 2125 16903 101
is_linear=0
shrinkage=0.03


Tree=24
num_leaves=25
num_cat=0
split_feature=2 116 47 2 110 112 79 99 23 37 109 63 102 110 48 37 2 99 78 84 89 22 116 102
split_gain=7.71593e+09 2.16819e+10 5.20986e+10 1.32457e+10 3.08333e+10 6.12488e+09 6.3255e+09 1.22073e+10 2.49432e+09 2.25809e+09 1.06297e+09 3.6457e+09 2.3785e+10 1.74077e+09 6.45008e+09 1.35998e+09 8.11047e+08 2.06191e+09 3.65022e+09 7.05731e+08 5.61515e+08 3.21117e+09 1.15155e+08 1.69255e+07
threshold=2453838.5000000005 2.1550000000000007 2.1850000000000005 2453109.0000000005 1.2350000000000001 9.6000000000000014 1.7250000000000003 3.5550000000000002 9.4950000000000028 11.385000000000003 33.220000000000006 2.6250000000000004 26.135000000000002 0.015000000000000001 2.4050000000000007 16.675000000000004 2455336.0000000005 2.9850000000000008 96.605000000000004 3.9050000000000007 18.175000000000004 16.555000000000003 2.9550000000000005 23.695000000000004
decision_type=2 2 2 2 2 2 2 2 2 2 2 2 2 2 2 2 2 2 2 2 2 2 2 2
left_child=1 2 3 8 -5 6 7 -3 -1 -8 11 12 23 15 -15 -13 17 18 -12 -19 22 -22 -18 -2
right_child=10 5 -4 4 -6 -7 9 -9 -10 -11 16 13 -14 14 -16 -17 20 19 -20 -21 21 -23 -24 -25
leaf_value=-86.682264415067777 -25.6165858287196 20.162419111866061 1757.3426290457589 -58.130665633461689 1323.2497436053936 546.94868984985351 -7.9513128181248582 366.35300178470465 200.6029326210022 65.144684387072601 -14.453121151716811 -11.826259557792586 1117.5185130615234 348.2024660459615 18.045573628929461 211.01459112396239 -17.723151930543228 115.11944083658854 179.26357229815272 -5.280261983673852 53.658600560635747 -7.8560793991873696 -10.377965367976623 -56.245039631236679
leaf_weight=85 62 295 21 33 26 20 2345 133 40 454 184 1752 20 59 547 25 2221 45 167 1665 844 8032 14220 22
leaf_count=85 62 295 21 33 26 20 2345 133 40 454 184 1752 20 59 547 25 2221 45 167 1665 844 8032 14220 22
internal_value=0 42.4647 341.69 180.121 550.613 23.5731 20.3293 127.74 5.249 3.90492 -4.90836 13.8703 187.738 6.28226 50.1896 -8.69119 -6.6142 11.483 77.7141 -2.11185 -8.08745 -2.00678 -11.3702 -33.6383
internal_weight=0 3452 205 184 59 3247 3227 428 125 2799 29865 2487 104 2383 606 1777 27378 2061 351 1710 25317 8876 16441 84
internal_count=33317 3452 205 184 59 3247 3227 428 125 2799 29865 2487 104 2383 606 1777 27378 2061 351 1710 25317 8876 16441 84
is_linear=0
shrinkage=0.03


Tree=25
num_leaves=23
num_cat=0
split_feature=1 23 56 75 91 66 117 110 103 76 56 56 93 117 1 17 1 23 23 1 53 91
split_gain=2.82509e+10 4.31163e+10 5.69066e+10 3.02202e+10 2.47384e+10 1.90567e+10 7.54862e+10 1.18899e+10 8.32515e+09 2.39126e+09 2.08423e+09 1.43835e+09 1.43011e+09 9.30615e+09 4.50882e+09 3.16362e+09 2.04292e+08 1.55371e+09 2.00052e+08 9.35758e+08 7.79373e+07 5.7094e+07
threshold=61.668350000000011 13.505000000000001 13.125000000000002 8.3900000000000023 8.4950000000000028 4.3550000000000013 3.9750000000000005 0.14500000000000005 11.085000000000003 61.220000000000006 12.235000000000001 10.845000000000001 36.220000000000006 18.070000000000004 48.14986111000001 12.915000000000001 61.158350000000006 9.1150000000000002 17.345000000000002 48.404383500000009 8.6150000000000002 3.5650000000000004
decision_type=2 2 2 2 2 2 2 2 2 2 2 2 2 2 2 2 2 2 2 2 2 2
left_child=12 4 8 -4 9 7 -7 -6 11 -2 -11 -3 13 14 15 -1 18 20 21 -20 -18 -14
right_child=1 2 3 -5 5 6 -8 -9 -10 10 -12 -13 16 -15 -16 -17 17 -19 19 -21 -22 -23
leaf_value=-2.0154211091893117 322.34941424560543 -89.650760603684645 740.57912512207031 2389.7667919921873 364.28117831759982 2188.1519366455077 258.91947079051624 50.469762032141162 636.8348383199758 -15.140520315188592 145.73781646728514 198.41502755972056 -9.8694437435674924 654.32802149963379 433.74947445956138 151.45261680175781 -16.319804899964151 216.18497448730469 -5.2887130804014912 131.29104046365489 -81.343375636509478 -12.863043242566139
leaf_weight=3677 20 39 20 20 135 20 209 557 29 1563 76 26 9369 20 22 125 79 30 2436 46 21 14778
leaf_count=3677 20 39 20 20 135 20 209 557 29 1563 76 26 9369 20 22 125 79 30 2436 46 21 14778
internal_value=0 92.7645 617.444 1565.17 65.5137 190.192 427.411 111.69 214.156 -3.70197 -7.68063 25.5756 -8.22674 8.88395 5.5082 3.03021 -10.6847 26.8313 -10.8679 -2.75742 -29.9748 -11.7015
internal_weight=0 2714 134 40 2580 921 229 692 94 1659 1639 65 30603 3844 3824 3802 26759 130 26629 2482 100 24147
internal_count=33317 2714 134 40 2580 921 229 692 94 1659 1639 65 30603 3844 3824 3802 26759 130 26629 2482 100 24147
is_linear=0
shrinkage=0.03


Tree=26
num_leaves=25
num_cat=0
split_feature=2 112 113 2 113 61 69 114 31 45 29 109 110 46 64 117 2 113 81 86 8 76 47 47
split_gain=6.99972e+09 2.03563e+10 5.64159e+10 1.12335e+10 3.18701e+10 7.68944e+10 6.42487e+09 6.38751e+09 2.60541e+09 7.47796e+09 1.91877e+09 9.97042e+08 8.53792e+09 3.87812e+10 1.69331e+09 9.14612e+08 6.52365e+08 2.17329e+09 1.87608e+09 6.51057e+08 2.84726e+09 4.06758e+08 2.42924e+08 1.26573e+08
threshold=2453838.5000000005 1.1650000000000003 2.0250000000000004 2453109.0000000005 2.2350000000000008 95.085000000000022 11.695000000000002 0.17500000000000002 0.16500000000000004 2.5550000000000002 1.8350000000000002 28.280000000000005 0.10500000000000002 4.0150000000000006 4.455000000000001 9.4650000000000016 2455336.0000000005 1.7550000000000001 0.29500000000000004 18.375000000000004 9.4050000000000029 74.530000000000015 3.9550000000000005 0.12500000000000003
decision_type=2 2 2 2 2 2 2 2 2 2 2 2 2 2 2 2 2 2 2 2 2 2 2 2
left_child=1 2 7 8 5 -5 -6 -1 9 -3 -10 12 14 -14 22 -15 17 -13 -19 23 -21 -9 -2 -18
right_child=11 3 -4 4 6 -7 -8 21 10 -11 -12 16 13 15 -16 -17 19 18 -20 20 -22 -23 -24 -25
leaf_value=443.07742412567137 -12.544423444085114 -61.186272532145182 1804.2111973935907 2303.5311481475828 -16.301674760926353 -16.513259506225587 150.60805155070443 -224.73877633231027 58.864803887853078 662.31723120117181 -20.237384458480697 231.75292602539062 1463.5322851409912 -18.064252733230589 204.45095584420596 144.50758742388558 10.660659709074059 114.03187820943197 -1.5019111766271382 46.506730826948946 -6.7153054479059282 -50.076693077087398 52.996860852511425 -11.059815207375108
leaf_weight=28 1282 36 22 20 389 36 445 21 318 20 2089 39 20 80 34 51 245 135 2008 1017 8190 28 53 16711
leaf_count=28 1282 36 22 20 389 36 445 21 318 20 2089 39 20 80 34 51 245 135 2008 1017 8190 28 53 16711
internal_value=0 40.4459 464.416 27.9279 119.276 812.074 72.7569 81.617 -5.08049 197.208 -9.78683 -4.67501 18.9958 233.082 -4.61781 45.2271 -5.94436 9.81523 5.77623 -7.25871 -0.836429 -124.932 -9.94241 -10.746
internal_weight=0 3452 99 3353 890 56 834 77 2463 56 2407 29865 1520 151 1369 131 28345 2182 2143 26163 9207 49 1335 16956
internal_count=33317 3452 99 3353 890 56 834 77 2463 56 2407 29865 1520 151 1369 131 28345 2182 2143 26163 9207 49 1335 16956
is_linear=0
shrinkage=0.03


Tree=27
num_leaves=24
num_cat=0
split_feature=0 23 56 70 57 116 63 0 108 76 9 117 56 63 18 9 45 50 84 65 65 88 52
split_gain=2.19748e+10 4.13049e+10 4.66772e+10 2.29643e+10 1.8585e+10 2.28325e+10 1.03228e+11 1.40012e+10 9.48751e+09 4.59942e+09 1.37836e+09 8.22172e+09 1.9348e+09 1.2598e+10 7.66622e+08 6.07242e+08 3.28046e+08 9.4415e+07 4.47987e+08 8.14843e+07 5.57739e+08 5.36432e+07 2.08281e+06
threshold=-141.19584499999999 13.505000000000001 13.125000000000002 10.885000000000003 15.195000000000002 2.1550000000000007 3.8850000000000002 -142.26784999999998 8.3900000000000023 61.530000000000008 40.030000000000008 17.395000000000003 18.425000000000004 2.6250000000000004 1.7750000000000001 39.590000000000011 0.91500000000000015 2.4350000000000005 5.2650000000000006 2.0850000000000004 2.0950000000000002 8.8450000000000006 11.895000000000001
decision_type=2 2 2 2 2 2 2 2 2 2 2 2 2 2 2 2 2 2 2 2 2 2 2
left_child=1 4 8 -4 9 6 -6 -7 14 -1 11 12 15 -14 -3 -2 -11 18 22 21 -21 -19 -12
right_child=10 2 3 -5 5 7 -8 -9 -10 16 17 -13 13 -15 -16 -17 -18 19 -20 20 -22 -23 -24
leaf_value=432.46368273053849 -7.4931719853035599 119.45198545455932 713.69925577799484 2003.6914601997705 127.58727208121519 69.444023418887909 2208.1175517390325 604.91500723133913 580.01177371463268 98.513800606105633 -13.791593299278846 493.63911355295488 609.60244666604433 21.002606656600463 -91.330471588481558 63.060408855560603 -15.506847727331868 -10.308384089197789 144.89931637573244 60.603029228437066 -10.103035040635325 -15.346925722983862 -25.02414608001709
leaf_weight=21 3866 24 27 23 123 985 26 46 37 23 39 31 34 874 44 113 1799 3141 20 101 17076 4820 24
leaf_count=21 3866 24 27 23 123 985 26 46 37 23 39 31 34 874 44 113 1799 3141 20 101 17076 4820 24
internal_value=0 75.0305 552.668 1307.1 50.5404 143.502 490.633 93.3351 193.417 -8.97952 -7.91158 6.61708 3.52772 43.0427 -16.9367 -5.48951 -14.0675 -10.7446 21.1992 -10.8501 -9.68729 -13.359 -18.0707
internal_weight=0 3178 155 50 3023 1180 149 1031 105 1843 30139 4918 4887 908 68 3979 1822 25221 83 25138 17177 7961 63
internal_count=33317 3178 155 50 3023 1180 149 1031 105 1843 30139 4918 4887 908 68 3979 1822 25221 83 25138 17177 7961 63
is_linear=0
shrinkage=0.03


Tree=28
num_leaves=28
num_cat=0
split_feature=104 21 113 64 60 117 6 37 67 55 78 66 117 39 114 104 96 62 88 37 97 107 104 4 19 39 110
split_gain=2.54226e+09 7.78594e+09 2.33742e+10 1.03106e+11 1.85357e+10 4.69231e+09 1.11322e+10 1.07583e+09 5.98778e+09 9.78798e+09 1.84249e+10 1.8391e+09 1.12518e+09 8.94486e+09 7.54863e+08 7.04897e+08 1.47785e+09 7.93659e+09 8.3521e+08 4.3636e+08 3.73289e+08 2.45581e+08 4.93637e+08 2.22633e+08 1.02666e+08 8.44035e+07 6.93523e+07
threshold=11.955000000000002 13.195000000000002 2.2350000000000008 1.6650000000000003 0.63500000000000012 6.3450000000000006 25.065000000000001 11.275 4.6350000000000007 16.845000000000002 95.885000000000005 2.8450000000000002 18.070000000000004 14.015000000000002 0.34500000000000003 16.085000000000004 2.2750000000000004 3.0050000000000003 20.955000000000002 -2.5549999999999993 0.19500000000000003 17.155000000000005 10.935 5.3450000000000006 15.815000000000003 14.285000000000002 0.025000000000000005
decision_type=2 2 2 2 2 2 2 2 2 2 2 2 2 2 2 2 2 2 2 2 2 2 2 2 2 2 2
left_child=7 2 3 4 -2 6 -4 12 9 25 -11 -10 21 26 -7 16 17 -3 -18 -17 -13 23 -23 -1 -21 -9 -14
right_child=1 15 5 -5 -6 14 -8 8 11 10 -12 20 13 -15 -16 19 18 -19 -20 24 -22 22 -24 -25 -26 -27 -28
leaf_value=-8.0876591216509208 -1.0211900054160437 27.626856698428885 44.548935513171514 1895.7765363979338 496.63673872979831 73.576300077438347 429.84413326424607 24.005363159179687 271.96107808893379 -37.981783218383789 1249.7441278381348 122.90309133911133 7.9631047248840323 647.03889208112435 -9.1239224987172172 126.86684051513672 -0.86933030702535385 634.38149113246368 155.747140427251 23.709106018066404 -8.0415791136595232 171.79787251281738 -24.844550374348959 -16.315457500313585 -10.467550577016199 -55.557584472656252 -37.544443250585481
leaf_weight=13949 277 255 1365 32 89 104 71 20 22 20 20 20 48 21 2214 21 2678 21 31 80 964 20 27 3757 7080 30 81
leaf_count=13949 277 255 1365 32 89 104 71 20 22 20 20 20 48 21 2214 21 2678 21 31 80 964 20 27 3757 7080 30 81
internal_value=0 9.54603 44.1624 262.77 119.994 20.9856 63.599 -7.19407 21.6585 256.096 605.881 0.685013 -8.96039 72.8596 -5.41347 -4.59201 7.66062 73.793 0.922885 -9.68519 -5.3801 -9.65171 58.8331 -9.8335 -10.0857 -23.7324 -20.6114
internal_weight=0 14318 4152 398 366 3754 1436 18999 1096 90 40 1006 17903 150 2318 10166 2985 276 2709 7181 984 17753 47 17706 7160 50 129
internal_count=33317 14318 4152 398 366 3754 1436 18999 1096 90 40 1006 17903 150 2318 10166 2985 276 2709 7181 984 17753 47 17706 7160 50 129
is_linear=0
shrinkage=0.03


Tree=29
num_leaves=24
num_cat=0
split_feature=1 52 58 27 42 0 42 0 101 112 87 90 1 0 15 77 10 106 112 0 2 1 36
split_gain=2.42353e+10 3.61768e+10 2.15327e+10 1.45574e+10 3.22654e+10 1.48789e+10 1.91879e+09 7.6447e+09 2.65872e+09 1.13427e+09 8.37575e+09 9.91463e+08 4.94076e+09 1.23843e+10 2.29403e+09 2.59732e+08 1.37438e+09 2.42378e+08 2.16994e+08 1.70622e+08 6.93659e+07 4.52274e+07 3.57756e+07
threshold=61.668350000000011 12.135000000000003 5.6450000000000005 0.40500000000000008 84.590000000000018 -142.26784999999998 74.530000000000015 -142.26784999999998 2.6750000000000003 10.075000000000001 -5.8349999999999991 30.555000000000003 48.283450000000009 -117.02544499999998 8.1150000000000002 6.1750000000000007 0.16500000000000004 35.115000000000002 1.3750000000000002 -159.36591664999997 2456426.0000000005 37.870700000000006 7.8350000000000009
decision_type=2 2 2 2 2 2 2 2 2 2 2 2 2 2 2 2 2 2 2 2 2 2 2
left_child=9 6 -3 4 -4 -5 7 8 -2 11 -11 17 14 -14 -13 18 -17 19 -8 -1 22 -22 -12
right_child=1 2 3 5 -6 -7 15 -9 -10 10 20 12 13 -15 -16 16 -18 -19 -20 -21 21 -23 -24
leaf_value=25.521838906386801 -38.34219268727302 1133.4874607252036 263.85896867385418 38.660695480520076 1437.030928365534 718.66253201238567 -49.822518343558677 598.95939040474275 203.44601835771039 600.93329633629844 -23.085091598510743 -2.1036832493072488 882.00849188232417 -49.067088419596352 145.01079603003473 256.48211686706543 -16.646482411807344 73.162734308550426 -12.159251751330117 -10.948481038666371 30.457132786342072 -22.164412952929126 -76.022966274685331
leaf_weight=116 160 23 515 440 22 31 156 23 55 23 20 5769 20 36 97 20 97 31 1172 24394 21 49 27
leaf_count=116 160 23 515 440 22 31 156 23 55 23 20 5769 20 36 97 20 97 31 1172 24394 21 49 27
internal_value=0 85.9191 225.86 205.15 311.922 83.4167 0.191814 79.1212 23.5106 -7.61966 77.5763 -8.01119 3.00636 283.46 0.328997 -12.8083 30.0422 -10.6698 -16.5836 -10.7759 -25.3058 -6.37795 -53.4962
internal_weight=0 2714 1031 1008 537 471 1683 238 215 30603 140 30463 5922 56 5866 1445 117 24541 1328 24510 117 70 47
internal_count=33317 2714 1031 1008 537 471 1683 238 215 30603 140 30463 5922 56 5866 1445 117 24541 1328 24510 117 70 47
is_linear=0
shrinkage=0.03


Tree=30
num_leaves=26
num_cat=0
split_feature=2 112 51 2 113 93 5 31 45 85 60 105 41 105 36 2 113 80 8 86 117 86 116 112 2
split_gain=5.96361e+09 1.79301e+10 5.6337e+10 1.02774e+10 2.88591e+10 7.82605e+10 5.64717e+09 2.38865e+09 7.08006e+09 2.14441e+09 2.13992e+09 8.86835e+08 4.0755e+09 1.29459e+10 6.64421e+09 9.13711e+08 2.24629e+09 1.4297e+09 3.27565e+08 1.80433e+09 3.90307e+08 2.89362e+08 1.31011e+08 2.36505e+08 2.04145e+08
threshold=2453838.5000000005 1.1650000000000003 2.5850000000000004 2453109.0000000005 2.2350000000000008 80.220000000000013 7.0450000000000008 0.16500000000000004 2.5550000000000002 0.16500000000000004 2.1850000000000005 18.855000000000004 11.735000000000001 29.085000000000004 21.955000000000002 2455336.0000000005 1.7550000000000001 1.8450000000000004 10.505000000000001 25.235000000000003 9.7050000000000018 16.325000000000003 2.9550000000000005 1.3450000000000004 2455379.0000000005
decision_type=2 2 2 2 2 2 2 2 2 2 2 2 2 2 2 2 2 2 2 2 2 2 2 2 2
left_child=1 2 10 7 5 -5 -6 8 -3 -9 21 15 13 14 -13 16 -2 -18 19 -14 -20 -1 24 -24 -17
right_child=11 3 -4 4 6 -7 -8 9 -10 -11 -12 12 18 -15 -16 22 17 -19 20 -21 -22 -23 23 -25 -26
leaf_value=-25.059378118515014 280.47944673810684 -63.722790222167973 1666.4853269165037 2220.0668696812218 -17.674586298675536 -96.489663391113282 139.25248816670933 207.32978560638426 640.26893673706047 -14.17558436830083 267.295561689897 28.027937004398769 -5.2527860896347907 767.0265255598589 530.58444259643557 -59.460529537200927 204.46858237526632 4.7537958148790782 -9.9250097172295533 153.48484426879881 8.0368977664744783 -168.30177961869671 79.643963504367392 -9.2238907959747003 -14.815021882850202
leaf_weight=30 28 36 25 21 375 35 459 40 20 2367 22 1756 458 22 24 96 33 1439 7100 75 1286 22 27 15206 2315
leaf_count=30 28 36 25 21 375 35 459 40 20 2367 22 1756 458 22 24 96 33 1439 7100 75 1286 22 27 15206 2315
internal_value=0 37.3327 435.234 25.5843 112.959 772.219 68.6918 -5.98825 187.703 -10.4946 19.2714 -4.31516 2.59296 43.7434 34.804 -8.18384 14.2944 9.2311 -5.7211 17.0837 -7.17054 -85.6619 -10.0948 -9.06638 -16.5927
internal_weight=0 3452 99 3353 890 56 834 2463 56 2407 74 29865 10721 1802 1780 19144 1500 1472 8919 533 8386 52 17644 15233 2411
internal_count=33317 3452 99 3353 890 56 834 2463 56 2407 74 29865 10721 1802 1780 19144 1500 1472 8919 533 8386 52 17644 15233 2411
is_linear=0
shrinkage=0.03


Tree=31
num_leaves=28
num_cat=0
split_feature=0 19 25 104 27 22 107 54 65 102 107 76 65 76 117 15 15 76 50 65 86 0 84 47 46 47 108
split_gain=1.8729e+10 3.22654e+10 3.11137e+10 5.13515e+10 7.48935e+10 3.50049e+10 8.98523e+09 1.94683e+10 7.83985e+09 2.46336e+09 1.44401e+10 1.2055e+09 6.53639e+09 1.04833e+09 7.58578e+09 2.6231e+09 1.49154e+10 1.5979e+09 8.09357e+08 5.83955e+08 3.09914e+08 2.66451e+09 4.88812e+09 4.10166e+08 1.59141e+08 3.45776e+08 1.40337e+08
threshold=-141.19584499999999 11.635000000000003 8.8250000000000011 15.695000000000002 0.115 11.805000000000001 6.6250000000000009 12.415000000000001 4.6250000000000009 16.385000000000002 10.935 67.910000000000011 3.0950000000000002 30.970000000000002 17.395000000000003 8.0050000000000008 8.2650000000000023 30.345000000000002 4.4850000000000012 0.87500000000000011 22.495000000000001 -116.82970979999997 9.4650000000000016 5.1150000000000011 1.5050000000000001 0.34500000000000003 6.870000000000001
decision_type=2 2 2 2 2 2 2 2 2 2 2 2 2 2 2 2 2 2 2 2 2 2 2 2 2 2 2
left_child=1 9 3 5 -5 -3 7 -4 -8 11 -11 12 -1 14 15 17 -17 -2 -12 -13 24 22 -22 -23 25 -15 -26
right_child=13 2 6 4 -6 -7 8 -9 -10 10 18 19 -14 20 -16 16 -18 -19 -20 -21 21 23 -24 -25 26 -27 -28
leaf_value=-23.316369254533633 -5.763894590695771 1251.4578056640623 -50.888844134990983 2141.6362446145449 -104.76125285755504 175.67682008548658 38.704731832974538 1194.0927977600097 627.60098144531253 867.22529287719726 147.74151626586914 72.566710193858427 578.79791011047371 -18.309477761008523 593.35048461914062 868.23558266775945 -27.832890455664657 104.07515029180617 -67.663716784960599 -17.00038639616427 46.297003550280891 -9.9906501869145661 526.28697999572751 46.586714543568881 -9.0206167318478769 139.77328578186032 -14.118091576592663
leaf_weight=86 2209 30 26 34 22 294 653 20 21 20 20 68 20 33 20 21 82 126 73 1791 422 5084 20 118 14729 20 7255
leaf_count=86 2209 30 26 34 22 294 653 20 21 20 20 68 20 33 20 21 82 126 73 1791 422 5084 20 118 14729 20 7255
internal_value=0 69.268 200.651 420.273 1259.12 275.286 84.7397 490.408 57.0531 -0.280327 135.928 -8.11318 90.2901 -7.30395 11.4722 6.6988 154.861 0.16318 -21.34 -13.7241 -8.97122 -2.69882 68.016 -8.70727 -10.5777 41.3444 -10.7028
internal_weight=0 3178 1100 380 56 324 720 46 674 2078 113 1965 106 30139 2458 2438 103 2335 93 1859 27681 5644 442 5202 22037 53 21984
internal_count=33317 3178 1100 380 56 324 720 46 674 2078 113 1965 106 30139 2458 2438 103 2335 93 1859 27681 5644 442 5202 22037 53 21984
is_linear=0
shrinkage=0.03


Tree=32
num_leaves=24
num_cat=0
split_feature=1 56 107 29 91 0 86 2 118 9 117 1 56 1 9 41 2 1 91 113 113 91 114
split_gain=2.11286e+10 3.3869e+10 5.52732e+10 2.23475e+10 1.84227e+10 2.82153e+10 5.94514e+10 5.94089e+09 2.71679e+09 1.16152e+09 7.27334e+09 2.11624e+09 8.07384e+09 1.37147e+09 9.00099e+08 9.53521e+08 1.56843e+08 3.09366e+08 3.0782e+09 1.32696e+08 6.48759e+07 6.27511e+07 5.29219e+07
threshold=61.668350000000011 13.125000000000002 13.635000000000003 1.7750000000000001 8.4950000000000028 -147.73225369999997 15.305000000000001 2451441.5000000005 3.5150000000000001 40.030000000000008 17.395000000000003 41.890577780000008 18.695000000000004 30.355066665000006 61.655000000000008 11.015000000000002 2453541.0000000005 48.404383500000009 14.805000000000001 2.6550000000000007 13.245000000000003 6.4250000000000007 0.26500000000000007
decision_type=2 2 2 2 2 2 2 2 2 2 2 2 2 2 2 2 2 2 2 2 2 2 2
left_child=9 4 3 -3 14 7 -7 -6 -5 10 11 13 -13 -1 -2 -16 19 21 -19 22 -21 -18 -11
right_child=1 2 -4 8 5 6 -8 -9 -10 16 -12 12 -14 -15 15 -17 17 18 -20 20 -22 -23 -24
leaf_value=154.18709623620865 146.62942622465243 849.35089390345979 1517.5883091900798 -122.53625225582638 -123.03780529909866 1336.4143992145243 195.98789483781997 103.92338304108554 271.54223274993899 -89.948280532836904 464.31453026556198 4.7535721538358686 233.14947347342249 -8.8658732044756281 -12.446526370932665 161.1375277815194 -8.076539427596499 -4.3984450392879513 255.97381507341251 -15.061032618385061 -68.192776140485492 -11.198628015258306 -37.933875106500118
leaf_weight=47 34 35 37 74 130 52 197 515 20 20 31 866 166 3808 1591 29 10930 823 43 1371 21 12330 147
leaf_count=47 34 35 37 74 130 52 197 515 20 20 31 866 166 3808 1591 29 10930 823 43 1371 21 12330 147
internal_value=0 80.2233 495.429 202.251 53.173 162.896 434.149 58.1793 -38.6898 -7.11453 6.24211 3.33639 41.4917 -6.87794 -6.13303 -9.33916 -9.67197 -9.07605 8.52997 -18.8941 -15.8626 -9.73154 -44.1631
internal_weight=0 2714 166 129 2548 894 249 645 94 30603 4918 4887 1032 3855 1654 1620 25685 24126 866 1559 1392 23260 167
internal_count=33317 2714 166 129 2548 894 249 645 94 30603 4918 4887 1032 3855 1654 1620 25685 24126 866 1559 1392 23260 167
is_linear=0
shrinkage=0.03


Tree=33
num_leaves=25
num_cat=0
split_feature=2 113 47 61 20 117 70 91 76 105 25 7 85 98 2 113 80 2 115 14 115 116 2 2
split_gain=5.30416e+09 1.58906e+10 4.95269e+10 2.46557e+10 7.21097e+10 4.98385e+09 5.1158e+09 1.36221e+10 4.53852e+09 7.9194e+08 2.68156e+09 1.23114e+10 3.77448e+10 3.75402e+09 7.78671e+08 2.03695e+09 1.33072e+09 5.0493e+08 4.29828e+08 2.05507e+09 2.04162e+08 1.37016e+08 2.36963e+08 1.95197e+08
threshold=2453838.5000000005 2.2350000000000008 2.1250000000000004 93.105000000000004 7.2350000000000012 17.395000000000003 10.065000000000003 11.375000000000002 66.590000000000018 18.855000000000004 12.605000000000002 31.955000000000002 1.3450000000000004 0.91500000000000015 2455336.0000000005 1.7550000000000001 1.8450000000000004 2453541.0000000005 8.6450000000000014 0.77500000000000013 3.2750000000000004 2.9550000000000005 2455379.0000000005 2455357.0000000005
decision_type=2 2 2 2 2 2 2 2 2 2 2 2 2 2 2 2 2 2 2 2 2 2 2 2
left_child=1 2 3 4 -1 6 17 -8 -5 14 11 13 -13 -11 15 -2 -17 -3 20 -20 -12 22 -16 -23
right_child=9 5 -4 8 -6 -7 7 -9 -10 10 18 12 -14 -15 21 16 -18 -19 19 -21 -22 23 -24 -25
leaf_value=-51.450171080589293 266.5037860107422 -14.613575261128659 1682.2542674560548 404.37958296402644 2154.770092529297 464.61752863103692 295.70456788048381 2.0659092521122524 -38.909101826416119 281.03443176269531 -10.64974283503777 1523.9020936889649 -13.823702098622041 13.00135852751346 -62.319831140041352 196.56161848588422 3.8842353968159697 28.462294679152837 328.06567854309077 -12.801712458683893 -1.1039675045692594 42.27663276672363 -14.219425767284747 -8.6652100669408512
leaf_weight=40 28 2114 20 23 20 22 195 525 216 48 4573 20 51 2324 96 33 1439 277 20 78 3607 68 2315 15165
leaf_count=40 28 2114 20 23 20 22 195 525 216 48 4573 20 51 2324 96 33 1439 277 20 78 3607 68 2315 15165
internal_value=0 35.2081 236.924 140.247 683.957 14.6695 11.4876 81.593 3.75048 -4.06959 2.45848 30.0769 419.338 18.4253 -7.72543 13.0254 8.20377 -9.62319 -5.69226 56.7631 -6.4405 -9.48956 -16.1347 -8.43781
internal_weight=0 3452 319 299 60 3133 3111 720 239 29865 10721 2443 71 2372 19144 1500 1472 2391 8278 98 8180 17644 2411 15233
internal_count=33317 3452 319 299 60 3133 3111 720 239 29865 10721 2443 71 2372 19144 1500 1472 2391 8278 98 8180 17644 2411 15233
is_linear=0
shrinkage=0.03


Tree=34
num_leaves=25
num_cat=0
split_feature=0 109 115 66 118 90 101 0 73 12 109 115 110 0 64 14 26 5 109 65 29 0 72 72
split_gain=1.61704e+10 2.97158e+10 1.64759e+10 4.06013e+10 3.01368e+10 2.15373e+10 3.22718e+10 1.43058e+10 3.80468e+09 7.13336e+09 1.53587e+09 7.36819e+09 5.43554e+09 3.01321e+10 1.51997e+09 1.31053e+09 3.75527e+09 9.17943e+08 2.37114e+08 1.75616e+09 4.75414e+08 9.49017e+07 1.3799e+09 1.09356e+08
threshold=-141.19584499999999 76.970000000000013 1.2350000000000001 4.3550000000000013 2.3350000000000004 25.425000000000004 0.72500000000000009 -142.26784999999998 23.975000000000005 2.5950000000000002 28.280000000000005 9.7950000000000017 0.10500000000000002 -117.87205999999999 4.455000000000001 0.16500000000000004 78.030000000000015 14.945000000000002 38.530000000000008 1.155 4.4450000000000012 -119.35719999999999 21.695000000000004 9.7950000000000017
decision_type=2 2 2 2 2 2 2 2 2 2 2 2 2 2 2 2 2 2 2 2 2 2 2 2
left_child=1 2 3 4 -1 7 -7 -4 15 -10 11 12 14 -14 -2 16 -3 -17 19 -12 -21 22 -20 -23
right_child=10 8 5 -5 -6 6 -8 -9 9 -11 18 -13 13 -15 -16 17 -18 -19 21 20 -22 23 -24 -25
leaf_value=103.1783320048704 -9.4460495967527738 462.08671517944339 75.248784142806457 1732.0176748495101 1362.5474049224854 1598.9803040937943 211.42630630493164 601.55855507364072 688.13373321533197 -79.005129547119139 280.16186320495603 578.88760598318913 1158.4976229858398 22.531323005659342 190.50593026297432 -20.513427481640424 -31.9707292582194 106.12750553922832 -11.286248328671771 -9.5474608243565218 19.888581875028652 -7.430312203924677 60.032329957344949 -11.649959611810131
leaf_weight=118 1527 20 904 20 20 22 48 49 20 24 20 21 24 169 35 1835 45 53 2386 1935 663 9169 272 13918
leaf_count=118 1527 20 904 20 20 22 48 49 20 24 20 21 24 169 35 1835 45 53 2386 1935 663 9169 272 13918
internal_value=0 64.3631 183.653 468.774 285.696 139.616 647.515 102.31 -6.18316 269.694 -6.78675 20.277 13.5928 163.791 -4.96569 -12.3985 120.047 -16.9584 -8.4814 0.120332 -2.03549 -9.3561 -3.98803 -9.97413
internal_weight=0 3178 1181 158 138 1023 70 953 1997 44 30139 1776 1755 193 1562 1953 65 1888 28363 2618 2598 25745 2658 23087
internal_count=33317 3178 1181 158 138 1023 70 953 1997 44 30139 1776 1755 193 1562 1953 65 1888 28363 2618 2598 25745 2658 23087
is_linear=0
shrinkage=0.03


Tree=35
num_leaves=23
num_cat=0
split_feature=1 23 57 109 32 49 4 103 109 113 1 109 1 4 58 118 109 1 114 2 1 112
split_gain=1.83521e+10 3.42055e+10 4.09731e+10 2.0439e+10 2.31628e+10 6.17137e+10 1.7426e+10 1.4734e+10 1.44895e+09 7.61603e+09 5.8224e+09 3.73728e+10 1.94763e+09 1.00879e+09 1.26651e+09 5.96439e+08 2.24016e+08 1.14809e+09 1.14358e+09 1.67951e+08 2.84402e+08 2.01061e+08
threshold=61.668350000000011 13.505000000000001 23.165000000000003 77.530000000000015 1.2050000000000003 4.0150000000000006 10.395000000000001 10.485000000000001 28.280000000000005 13.245000000000003 41.966200000000008 27.530000000000005 30.355066665000006 12.835000000000003 11.605000000000002 1.7150000000000001 38.530000000000008 48.283450000000009 0.19500000000000003 2453578.0000000005 48.404383500000009 1.5550000000000004
decision_type=2 2 2 2 2 2 2 2 2 2 2 2 2 2 2 2 2 2 2 2 2 2
left_child=8 3 7 4 5 -2 -6 15 9 10 12 -12 -1 14 -5 -3 17 18 -10 21 -21 -18
right_child=1 2 -4 13 6 -7 -8 -9 16 -11 11 -13 -14 -15 -16 -17 19 -19 -20 20 -22 -23
leaf_value=242.90267937796455 223.94662155072714 33.461986195246375 1424.3651562325613 -14.734503065204171 38.95834615270519 1983.8480493996358 378.45475655419483 714.33355112711592 117.89836804635183 601.78728817749015 19.310544149720823 1397.7841538085938 -9.546281287209867 155.45599284172059 -155.31982487487792 -153.06488064871894 -60.06898767551597 215.92401455965907 -5.0267752787562845 -9.0807391457022906 8.5306216156775498 -15.7460793621946
leaf_weight=28 97 36 35 1487 716 22 168 36 70 20 154 20 1554 30 60 27 98 22 2526 23723 855 1533
leaf_count=28 97 36 35 1487 716 22 168 36 70 20 154 20 1554 30 60 27 98 22 2526 23723 855 1533
internal_value=0 74.7668 542.095 50.4947 156.373 549.307 103.478 230.181 -6.63062 19.6687 13.0386 177.756 -5.07816 -16.8457 -20.1871 -46.4781 -8.2509 0.116723 -1.71215 -9.08673 -8.46809 -18.4093
internal_weight=0 2714 134 2580 1003 119 884 99 30603 1776 1756 174 1582 1577 1547 63 28827 2618 2596 26209 24578 1631
internal_count=33317 2714 134 2580 1003 119 884 99 30603 1776 1756 174 1582 1577 1547 63 28827 2618 2596 26209 24578 1631
is_linear=0
shrinkage=0.03


Tree=36
num_leaves=24
num_cat=0
split_feature=1 23 75 36 7 18 112 104 77 112 114 106 41 96 1 58 55 64 7 8 29 2 72
split_gain=1.72675e+10 3.21839e+10 3.05591e+10 6.68483e+10 1.52869e+10 3.71146e+10 1.53904e+10 9.65171e+09 1.89725e+09 9.82276e+08 7.47096e+09 7.33898e+08 1.09475e+10 1.46727e+10 1.68215e+09 5.85404e+08 7.30194e+08 5.43458e+08 2.58338e+08 5.52183e+09 1.3474e+08 1.33312e+08 5.54006e+07
threshold=61.668350000000011 13.505000000000001 8.3900000000000023 17.685000000000006 13.955000000000002 4.9850000000000012 1.1150000000000004 13.335000000000003 1.2050000000000003 10.075000000000001 4.7350000000000012 34.875000000000007 8.8750000000000018 3.7350000000000008 47.538554870000006 7.535000000000001 12.715000000000002 0.87500000000000011 31.955000000000002 11.625000000000002 3.5950000000000002 2453473.0000000005 17.735000000000003
decision_type=2 2 2 2 2 2 2 2 2 2 2 2 2 2 2 2 2 2 2 2 2 2 2
left_child=9 4 7 -4 15 6 -6 8 -3 11 -11 18 13 -13 -14 16 -2 -17 21 -20 -12 -1 -22
right_child=1 2 3 -5 5 -7 -8 -9 -10 10 20 12 14 -15 -16 17 -18 -19 19 -21 22 -23 -24
leaf_value=-17.334915319745132 -12.284110861559796 -114.91697985021079 2397.525651899065 56.429129054857334 542.70050131271137 1109.3758171395696 73.032672533622971 683.6209410603841 230.42590780084782 609.66148681640618 52.404397648402622 -45.329009649103334 -1.8784988523404913 1077.3988451385499 267.851035723005 -16.073916241189707 145.26689520941838 -163.54957429452375 355.14583895169773 -4.528895040961201 -19.966672722055943 -8.4926730540768336 -75.860972351074224
leaf_weight=1640 1362 41 21 23 67 34 1000 27 22 20 21 22 2288 20 21 46 27 44 39 2563 79 23870 20
leaf_count=1640 1362 41 21 23 67 34 1000 27 22 20 21 22 2288 20 21 46 27 44 39 2563 79 23870 20
internal_value=0 72.5238 525.832 1173.77 48.9799 133.617 102.524 209.062 5.67895 -6.43171 72.851 -6.79607 9.30566 489.303 0.57465 -14.0259 -9.22156 -88.1731 -8.14265 0.862079 -16.6175 -9.06113 -31.2585
internal_weight=0 2714 134 44 2580 1101 1067 90 63 30603 140 30463 2351 42 2309 1479 1389 90 28112 2602 120 25510 99
internal_count=33317 2714 134 44 2580 1101 1067 90 63 30603 140 30463 2351 42 2309 1479 1389 90 28112 2602 120 25510 99
is_linear=0
shrinkage=0.03


Tree=37
num_leaves=27
num_cat=0
split_feature=0 19 25 104 67 115 42 74 0 42 31 97 76 116 17 42 76 54 71 105 0 105 115 46 118 88
split_gain=1.34847e+10 2.43195e+10 2.82377e+10 4.43165e+10 7.23362e+10 4.88677e+10 9.67885e+09 1.75238e+10 5.57206e+09 2.64836e+09 1.05475e+10 2.35168e+09 8.40477e+08 6.58876e+09 3.89235e+09 1.45515e+10 1.32545e+09 5.77798e+08 4.56127e+08 2.07769e+08 1.68735e+09 5.4832e+09 7.04638e+08 1.07647e+08 3.5557e+08 1.04628e+08
threshold=-141.19584499999999 11.635000000000003 8.8250000000000011 15.695000000000002 6.2350000000000012 1.2350000000000001 87.410000000000011 10.665000000000001 -142.26784999999998 71.590000000000018 3.0350000000000006 1.3450000000000004 30.970000000000002 12.425000000000002 12.915000000000001 32.470000000000006 30.345000000000002 12.785000000000002 13.135000000000003 24.285000000000004 -116.82970979999997 25.175000000000004 8.6450000000000014 1.5050000000000001 1.1950000000000001 8.7350000000000012
decision_type=2 2 2 2 2 2 2 2 2 2 2 2 2 2 2 2 2 2 2 2 2 2 2 2 2 2
left_child=1 9 3 5 -5 -3 8 -8 -4 10 11 -1 13 14 16 -16 -2 18 -11 23 21 -21 -22 24 -14 -25
right_child=12 2 6 4 -6 -7 7 -9 -10 17 -12 -13 19 -15 15 -17 -18 -19 -20 20 22 -23 -24 25 -26 -27
leaf_value=-48.525703041770235 -6.362781491867608 1215.3433563827887 15.137356676306361 357.68614446004227 2607.9166193847659 107.13931546463984 1143.8502930908203 -111.99118395996094 393.73446951376428 -13.017269263324408 704.21860028805941 165.58700240659041 135.02530936431884 552.90753039550782 -42.566646703522778 849.17639232469639 91.13376567998327 -148.68102957589284 124.41475191983311 297.26479225481063 -8.0134358630046947 -3.8748436327758262 111.34059303792317 -7.1203977192688486 -16.49176078132961 -11.177983566072253
leaf_weight=132 2224 41 643 36 20 283 20 20 37 1802 23 71 20 20 58 23 133 28 22 71 4155 233 45 12716 46 10395
leaf_count=132 2224 41 643 36 20 283 20 20 37 1802 23 71 20 20 58 23 133 28 22 71 4155 233 45 12716 46 10395
internal_value=0 58.7755 172.839 382.065 1161.34 247.375 62.4148 515.93 35.7375 -1.60479 95.3465 26.361 -6.19757 10.6144 6.16577 210.644 -0.861279 -13.4358 -11.3596 -7.69043 -1.79452 66.4571 -6.73464 -8.83618 29.4225 -8.94544
internal_weight=0 3178 1100 380 56 324 720 40 680 2078 226 203 30139 2458 2438 81 2357 1852 1824 27681 4504 304 4200 23177 66 23111
internal_count=33317 3178 1100 380 56 324 720 40 680 2078 226 203 30139 2458 2438 81 2357 1852 1824 27681 4504 304 4200 23177 66 23111
is_linear=0
shrinkage=0.03


Tree=38
num_leaves=25
num_cat=0
split_feature=0 56 106 67 118 91 0 89 62 2 76 37 76 117 15 106 76 89 55 0 59 46 95 91
split_gain=1.26877e+10 2.76967e+10 3.14845e+10 4.62358e+10 1.95517e+10 1.12596e+10 2.72012e+10 6.75446e+10 6.11897e+09 5.29344e+09 1.82026e+09 1.38654e+09 7.90805e+08 6.23442e+09 2.25194e+09 1.18979e+10 1.3579e+09 2.48319e+08 3.00162e+09 1.19968e+09 2.20595e+08 1.08902e+08 3.41148e+08 1.23197e+08
threshold=-141.19584499999999 13.125000000000002 22.485000000000003 6.6350000000000007 1.5550000000000004 8.4950000000000028 -147.73225369999997 14.905000000000003 1.8450000000000004 2451441.5000000005 61.220000000000006 11.595000000000001 30.970000000000002 17.395000000000003 7.8850000000000007 35.115000000000002 30.345000000000002 24.055000000000003 18.135000000000002 -118.91949999999999 65.845000000000013 1.5050000000000001 1.9450000000000001 7.7650000000000006
decision_type=2 2 2 2 2 2 2 2 2 2 2 2 2 2 2 2 2 2 2 2 2 2 2 2
left_child=1 5 8 4 -4 10 9 -8 -3 -7 -1 -12 13 14 16 -16 -2 21 -19 -20 -10 22 -14 -23
right_child=12 2 3 -5 -6 6 7 -9 20 -11 11 -13 17 -15 15 -17 -18 18 19 -21 -22 23 -24 -25
leaf_value=263.69319580078127 -5.714803986196725 380.00946552998306 -223.5167965359158 1868.3352665879991 907.93083461216509 -120.01950434003557 1455.8401380989767 157.55501755828857 -179.26401053292409 69.633049898360866 -13.471579375649396 226.06144159490412 -17.598198852539063 537.80559155273431 -37.416546785308093 699.08618105815003 95.546270980834962 348.42652236244896 68.327034145804021 -6.0668889982461174 -62.686883082389826 -7.0680273572281029 132.94070903778075 -11.563496457508258
leaf_weight=22 2204 37 27 27 28 168 44 200 21 626 1908 22 42 20 82 26 126 22 204 4466 48 13835 20 9092
leaf_count=22 2204 37 27 27 28 168 44 200 21 626 1908 22 42 20 82 26 126 22 204 4466 48 13835 20 9092
internal_value=0 57.0122 410.207 851.612 352.493 34.8046 114.639 391.672 68.7437 29.5051 -7.64814 -10.7412 -6.01164 10.296 5.96862 139.89 -0.238883 -7.45972 -1.17021 -2.81713 -98.1669 -8.74339 30.9627 -8.85076
internal_weight=0 3178 188 82 55 2990 1038 244 106 794 1952 1930 30139 2458 2438 108 2330 27681 4692 4670 69 22989 62 22927
internal_count=33317 3178 188 82 55 2990 1038 244 106 794 1952 1930 30139 2458 2438 108 2330 27681 4692 4670 69 22989 62 22927
is_linear=0
shrinkage=0.03


Tree=39
num_leaves=27
num_cat=0
split_feature=0 57 110 32 20 96 4 114 9 81 25 13 9 117 62 106 9 117 68 68 0 0 107 37 106 63
split_gain=1.19379e+10 2.18221e+10 1.60998e+10 1.96255e+10 6.09911e+10 1.02002e+10 3.27417e+09 1.25519e+10 2.04568e+09 5.73851e+09 1.05769e+09 9.28811e+08 8.93235e+08 6.07012e+09 1.39023e+09 1.81834e+10 8.14689e+08 5.01853e+08 8.02401e+07 6.01126e+08 3.75213e+09 2.60682e+08 8.63647e+07 1.79138e+08 4.40281e+07 3.44622e+07
threshold=-141.19584499999999 17.005000000000006 2.9750000000000005 1.385 8.7350000000000012 4.4150000000000009 10.835000000000003 0.84500000000000008 64.030000000000015 0.88500000000000012 6.5050000000000008 2.1750000000000003 40.030000000000008 17.395000000000003 1.6650000000000003 35.115000000000002 39.590000000000011 4.4650000000000007 0.54500000000000015 0.50500000000000012 -119.35719999999999 -134.53555555499997 6.6250000000000009 -8.6249999999999982 26.265000000000004 3.9150000000000005
decision_type=2 2 2 2 2 2 2 2 2 2 2 2 2 2 2 2 2 2 2 2 2 2 2 2 2 2
left_child=1 6 3 4 -3 -5 8 -8 9 -1 -4 -10 13 14 15 -2 -16 -12 19 21 -21 -14 24 -24 -20 -9
right_child=12 2 10 5 -6 -7 7 25 11 -11 17 -13 18 -15 16 -17 -18 -19 22 20 -22 -23 23 -25 -26 -27
leaf_value=558.81843024117597 -16.399437237915834 1286.8027260007696 60.644978613281246 215.33531883247284 125.16823539209729 -34.647239313540247 833.7875971069335 -104.71039819335937 44.22239634781203 -102.40773315429686 -233.36963842773437 -18.780459604004303 97.448551134381972 424.33612290905364 -2.4025359072501238 839.26489299316404 78.111726973673385 -108.95570059535015 -6.8887805461227956 324.46339698791502 -10.887538565535571 -8.7853460886097885 79.267211425781241 -10.593400723990126 20.019062969554554 -50.865027226987095
leaf_weight=21 211 59 25 506 131 207 20 20 239 27 45 1772 21 31 4535 25 116 83 11092 36 181 2066 20 11750 55 23
leaf_count=21 211 59 25 506 131 207 20 20 239 27 45 1772 21 31 4535 25 116 83 11092 36 181 2066 20 11750 55 23
internal_value=0 55.3018 166.74 214.957 485.886 142.76 -0.154569 212.883 -6.67297 186.879 -117.836 -11.2928 -5.83129 5.86442 3.2099 74.243 -0.39444 -152.695 -8.11191 -2.7752 44.7467 -7.71639 -8.64845 -10.4407 -6.75602 -75.9094
internal_weight=0 3178 1056 903 190 713 2122 63 2059 48 153 2011 30139 4918 4887 236 4651 128 25221 2304 217 2087 22917 11770 11147 43
internal_count=33317 3178 1056 903 190 713 2122 63 2059 48 153 2011 30139 4918 4887 236 4651 128 25221 2304 217 2087 22917 11770 11147 43
is_linear=0
shrinkage=0.03


Tree=40
num_leaves=23
num_cat=0
split_feature=1 56 13 109 61 61 16 57 14 16 109 113 1 109 1 9 109 63 100 29 1 1
split_gain=1.37506e+10 2.65259e+10 4.36531e+10 1.7119e+10 1.55742e+10 1.27926e+10 3.10328e+10 7.0756e+09 1.66213e+09 3.61549e+09 1.23612e+09 6.71255e+09 5.40505e+09 3.49157e+10 1.82301e+09 8.43281e+08 1.75326e+08 1.55405e+09 4.35204e+08 7.20145e+07 2.42827e+08 7.23663e+07
threshold=61.668350000000011 13.805000000000001 2.5150000000000001 77.530000000000015 98.395000000000024 97.825000000000003 6.1650000000000009 24.385000000000002 0.16500000000000004 2.5250000000000004 28.280000000000005 13.245000000000003 41.966200000000008 27.530000000000005 30.355066665000006 76.410000000000011 38.530000000000008 2.0550000000000002 9.4750000000000032 1.8750000000000002 61.158350000000006 48.821544445000008
decision_type=2 2 2 2 2 2 2 2 2 2 2 2 2 2 2 2 2 2 2 2 2 2
left_child=10 3 -3 5 -4 6 -2 -7 9 -5 11 12 14 -14 -1 -10 17 -12 -19 21 -21 -18
right_child=1 2 4 8 -6 7 -8 -9 15 -11 16 -13 13 -15 -16 -17 19 18 -20 20 -22 -23
leaf_value=234.78761744907925 174.80156442208227 1763.4636077008927 642.56938700625767 -37.161299815586638 -222.12433460132496 -13.976206823426017 1022.3814230891636 363.49796669311525 -70.371872987013603 468.4734645309448 257.203112814767 565.05243164062495 17.883184674498324 1350.2709847412109 -9.4509436005699126 -11.058588858877663 -10.398346671662589 -9.2407620445256438 18.667121869084422 -7.4162045291176515 43.691997364589149 -27.087214002841858
leaf_weight=28 523 21 38 35 37 421 42 50 260 20 21 20 154 20 1554 1267 4732 1915 682 21147 84 246
leaf_count=28 523 21 38 35 37 421 42 50 260 20 21 20 154 20 1554 1267 4732 1915 682 21147 84 246
internal_value=0 64.7181 554.498 46.7582 215.987 141.556 237.808 26.0954 -15.3218 146.706 -5.73946 18.5517 12.3273 171.031 -5.12814 -21.1578 -7.23601 0.166609 -1.91185 -7.97546 -7.214 -11.2231
internal_weight=0 2714 96 2618 75 1036 565 471 1582 55 30603 1776 1756 174 1582 1527 28827 2618 2597 26209 21231 4978
internal_count=33317 2714 96 2618 75 1036 565 471 1582 55 30603 1776 1756 174 1582 1527 28827 2618 2597 26209 21231 4978
is_linear=0
shrinkage=0.03


Tree=41
num_leaves=25
num_cat=0
split_feature=1 109 50 15 32 37 64 70 14 20 109 113 1 109 1 58 36 7 109 65 100 2 1 113
split_gain=1.29379e+10 2.24666e+10 1.56159e+10 3.08383e+10 4.33597e+10 1.7692e+10 8.10438e+09 4.06198e+09 1.63662e+09 3.46107e+09 1.16307e+09 6.31584e+09 5.08562e+09 3.28521e+10 1.71527e+09 6.06741e+08 3.67221e+09 3.40757e+08 1.64965e+08 1.61147e+09 4.16563e+08 1.58738e+08 2.34512e+08 1.69106e+08
threshold=61.668350000000011 79.090000000000018 4.745000000000001 1.7350000000000001 1.1050000000000002 13.105000000000002 0.14500000000000005 13.445000000000002 0.16500000000000004 2.1450000000000005 28.280000000000005 13.245000000000003 41.966200000000008 27.530000000000005 30.355066665000006 11.605000000000002 16.025000000000002 22.035000000000004 38.530000000000008 1.155 9.4750000000000032 2453578.0000000005 48.404383500000009 2.6550000000000007
decision_type=2 2 2 2 2 2 2 2 2 2 2 2 2 2 2 2 2 2 2 2 2 2 2 2
left_child=10 2 6 4 -4 -5 -2 -8 9 -3 11 12 14 -14 -1 16 -10 -17 19 -12 -21 23 -23 -20
right_child=1 8 3 5 -6 -7 7 -9 15 -11 18 -13 13 -15 -16 17 -18 -19 21 20 -22 22 -24 -25
